#ifndef TOTAL_WIDTH
#include "ap_fixed.h"

#define TOTAL_WIDTH	16
#define INT_WIDTH	5

typedef ap_fixed<TOTAL_WIDTH, INT_WIDTH> float16_t;
#endif

float16_t conv2d_layer1_weights[3][3][1][8] = {-0.0072934115,0.023661297,-0.06121031,-0.015080042,-0.15259105,0.02934102,0.04823434,-0.01211934,-0.012928915,0.04552989,-0.08884553,0.17452733,-0.20045266,0.030737143,0.039711766,0.27783337,-0.00042826877,0.04125086,-0.15367533,0.021392526,-0.0053714393,0.025566475,0.0042807315,-0.014256329,-0.006680679,-0.39808485,-0.15460859,0.106711455,-0.27815282,0.033076823,0.052378554,-0.014618324,-0.023169193,0.032062255,0.19896534,-0.16114075,-0.20334499,-0.59428364,0.16678701,-0.18773773,0.44522125,0.06363887,-0.00064871064,0.09675431,-0.04421186,0.027959436,0.04657374,-0.043914415,-0.00030289488,0.07350819,-0.16254023,-0.10167731,-0.026154047,0.037951782,0.07131296,0.07720971,-0.022666095,0.013644774,0.014421064,0.046039853,-0.047050692,0.007213785,0.2953602,-0.012549692,0.00031120368,0.0134309875,-0.24431783,-0.07112783,0.017663596,0.043208454,0.060806833,0.14248258};
float16_t conv2d_layer1_biases[8] = {-0.2877503,-0.35890055,-0.13123414,-0.10641065,-0.24343748,-0.30942756,-0.26722342,-0.22419217};
float16_t conv2d_layer2_weights[3][3][8][16] = {0.07203223,-0.11336893,0.01650304,0.26756957,0.54731554,0.06851827,0.07102945,-0.094951674,-0.095933735,-0.048359305,-0.058193684,-0.32991567,-0.24530798,0.19397937,0.020906927,-0.0014159336,-0.19430189,-0.03364196,0.03740018,-0.16635948,-0.008440547,-0.24205288,-0.16002534,0.44367072,0.10381092,-0.105037004,-0.1902464,0.07686215,-0.3666156,-0.07685384,0.100627154,0.028641148,0.0817151,0.13228007,-0.10691703,-0.06634158,0.005847133,0.05144032,-0.073010944,0.10561879,-0.088133186,-0.3489468,-0.12801796,0.2190649,-0.13057645,0.027660772,-0.13770051,-0.06156991,0.09889862,-0.074645884,0.006070919,0.0032375655,0.15030196,-0.09532285,-0.0026778535,0.060645074,0.14317496,-0.04446697,-0.034682397,-0.14480296,-0.07261049,0.06259792,-0.023758998,0.08324455,0.0780948,0.08752082,-0.025884412,0.1294565,0.035479497,0.09829649,0.3364407,0.049305484,0.14342053,-0.24502328,-0.00014691829,-0.025434539,-0.0077144396,0.110972926,0.08816455,0.078833416,-0.08649543,-0.19806015,0.11561877,-0.1448295,-0.10952838,-0.0719947,0.10043923,0.39030984,0.1393868,-0.4545007,-0.30996367,0.033076182,-0.4586968,-0.048738167,-0.113700666,0.03754185,0.13037871,0.037651815,-0.07303628,-0.0028701222,-0.014866065,-0.057107396,-0.06486687,0.15055285,-0.078050375,0.16684642,0.060452938,-0.16858122,-0.14513074,0.10212433,-0.0054359315,-0.14791268,0.06239926,0.086691864,-0.10148581,0.14090729,0.22871506,-0.18299608,-0.22874552,0.09167372,-0.20573136,-0.010258585,0.08877369,-0.22414137,0.041091103,-0.0951375,-0.016533278,0.18786351,0.04253726,0.08250495,0.038477458,-0.09438703,0.37291303,-0.07737016,-0.09771745,-0.4202999,-0.22366707,-0.062214218,-0.18600446,-0.23392434,-0.098048,-0.016400203,-0.09615933,0.16039744,-0.31022844,-0.2741452,0.38138852,0.052750725,0.062339965,-0.120183945,-0.067373335,0.4599461,0.03666117,0.0949083,-0.028242117,0.00748653,-0.5352525,-0.13249616,-0.044993926,-0.10341916,-0.14713909,-0.03290582,-0.0020451113,-0.18841039,0.036061957,-0.17142975,-0.040016394,0.16809386,-0.058761906,-0.25841075,0.01765771,0.10264006,-0.08287784,-0.12673423,-0.1419745,0.11420081,0.037041463,0.13520746,0.07941421,0.15044644,0.10585833,-0.05163228,0.031478293,0.21120816,0.042364374,0.018103668,0.017768757,-0.10831492,0.050429955,0.09218971,-0.03189675,-0.18929054,-0.09122369,-0.33234453,0.3640997,0.19667368,-0.024974357,0.08245945,0.14246123,0.12596087,0.0070984783,-0.011974704,-0.12872559,0.070651874,-0.060063835,-0.12256992,-0.20618378,-0.06856668,-0.08322858,-0.28380445,0.49217737,-0.035370253,-0.08399868,-0.05703006,-0.15150309,0.099098176,0.013168442,0.07698022,0.22821859,-0.046593994,-0.44036806,-0.15981066,-0.19463558,0.07804332,0.08141853,0.14886832,-0.08769813,-0.012145583,0.22067268,-0.20229433,-0.24674055,-0.10944846,0.09289367,0.18740064,0.13401623,-0.27434418,0.04137934,-0.1823429,-0.07690891,0.017490622,0.01289303,0.10053637,-0.017659092,-0.028049648,0.086440526,-0.006320352,-0.13096613,-0.054328863,-0.04649472,-0.13980457,-0.029860405,-0.17937876,0.0071051647,0.007988962,-0.016064893,0.10449263,0.15213375,-0.064234205,0.086295895,0.07822819,-0.04102955,0.019602159,0.11182813,-0.3775842,-0.101532966,-0.06668833,-0.14504047,-0.28327107,-0.23040126,-0.12710391,0.104102336,0.120644316,-0.17589717,-0.14843272,0.22800414,-0.011342168,0.010600341,-0.20555766,-0.4116948,-0.019608926,0.046847813,-0.098467894,0.4825486,-0.14879106,-0.27063698,-0.02143547,-0.16237934,-0.04062672,0.004563668,-0.11442107,-0.0077128755,-0.20064135,-0.021856958,0.012387621,-0.07280495,-0.13536999,-0.06508394,-0.048861105,0.12975855,0.31598562,0.023275916,-0.09499491,-0.121596634,0.27702752,-0.10236734,-0.113832705,-0.10914297,0.14955288,0.02996385,0.04224749,0.085667394,-0.24184753,0.15393887,0.108139984,0.07508282,-0.15456906,0.14636086,-0.026868276,0.01921182,-0.027972033,-0.020086262,-0.2128203,0.18694678,0.033878293,0.10566058,0.1149884,-0.43307456,0.030090649,0.2081254,0.2147755,0.24453026,-0.030394835,-0.07476697,0.21514718,-0.01261352,-0.13918431,-0.08198065,-0.3053823,-0.09872207,0.08410833,0.00039152591,-0.13518915,-0.25238097,-0.13473848,0.18191694,-0.014962269,0.3096455,0.029698417,-0.24487218,-0.025718788,-0.1451464,0.12932813,-0.073342,0.103481025,-0.0060721994,-0.16305538,-0.24653439,-0.07373612,-0.027701233,-0.13968547,-0.0322179,0.081644565,-0.037525862,-0.16933218,-0.15338564,-0.3734321,-0.11589454,-0.08460162,-0.03055126,0.17457275,0.03764573,-0.16429439,-0.12767397,0.114154756,0.08867119,-0.044926837,-0.18616071,-0.08884941,-0.093688816,-0.20825088,-0.17107606,-0.33785105,-0.17375977,0.015994117,0.04126025,0.044815775,0.122763395,-0.01771482,0.31817284,0.1940242,-0.080952115,-0.2254317,0.18096662,-0.11579584,-0.119947575,-0.17127912,0.15781787,0.1779883,-0.04382438,-0.08921627,-0.22611369,-0.18151473,0.1392933,0.10465694,0.09394504,-0.22090825,-0.21433115,0.047674213,-0.06469376,0.076361954,-0.3346543,-0.037816994,-0.23609358,-0.078672275,0.13597289,-0.017133936,-0.21597387,-0.023001675,-0.033206362,-0.09607757,-0.06806363,0.02832452,-0.15541297,-0.06291998,-0.14576295,-0.251977,-0.08881474,0.04289634,-0.007602932,0.01007723,0.029218579,-0.010933098,0.015710765,-0.1522596,-0.05170692,0.034790486,0.080553554,-0.09558232,0.09632737,-0.1654739,0.0010466632,-0.0068694595,-0.100101225,-0.05015175,-0.25666466,0.029785076,0.10747599,0.23576108,-0.102224894,0.074059255,-0.007143711,0.12791143,-0.027241254,-0.21297859,-0.020352688,0.1763223,0.26042154,-0.088234805,-0.0332597,0.008042163,-0.21204726,-0.2083432,0.027075082,0.013651902,-0.36132467,-0.2328845,0.019244405,0.038441952,-0.0472411,-0.25609428,-0.09670422,-0.23434338,-0.110031314,-0.33320388,-0.25920683,0.08057487,-0.20591807,-0.21481888,0.20509171,0.11101687,-0.13382842,-0.031719465,-0.037254903,-0.11389099,0.09545365,-0.27015042,0.0029435027,-0.1174701,-0.12762786,0.18312876,-0.0958926,-0.27334392,-0.117763035,-0.03427074,0.09217693,0.031650454,0.12186389,-0.036137726,-0.021698976,-0.14450109,-0.005746891,-0.16757675,0.015627636,0.07143816,-0.15382461,-0.05805033,0.043537702,-0.08064573,-0.14779516,0.10950146,-0.09728445,-0.02699527,0.22301987,-0.012958014,0.13722877,-0.25745314,0.26462334,0.19424091,-0.05075053,-0.44776922,-0.047480144,-0.036906876,-0.0008888569,-0.2602117,0.040563002,-0.09633173,0.045261372,0.08718536,-0.3229159,-0.43605074,-0.14660496,-0.030480186,0.047268257,-0.20500457,-0.28977194,-0.13395816,-0.012091591,-0.1703115,-0.04531091,0.026795892,0.01237111,-0.0051325248,0.09509124,-0.24866875,-0.31125727,-0.17085421,-0.0057262215,-0.06301268,-0.001552798,-0.0655048,0.017720073,-0.099589325,-0.11514816,-0.11179842,-0.115308896,0.11253155,0.0066567147,-0.045676183,-0.010662025,0.07161424,0.07595288,-0.10708907,-0.0023320043,-0.14425318,0.19863619,-0.1554923,0.020311108,-0.28179377,-0.0054670097,0.09009129,0.004016553,-0.12642212,0.16533014,-0.00046412108,0.019554125,0.12523842,-0.26087672,-0.038761135,0.16344355,-0.11679477,-0.10031702,-0.16485667,0.06258759,0.061577573,0.1665117,-0.023116527,-0.10706484,-0.10883197,0.058824625,0.16771537,0.065266356,0.04786027,-0.5150915,-0.14126919,-0.07684846,-0.037097603,-0.269404,-0.14961724,0.12749381,-0.22548358,-0.0012724584,-0.10617998,-0.22141233,0.004917819,0.06320744,-0.009985804,-0.18126036,0.018696198,-0.077616,0.13179591,0.011256104,-0.14933494,0.047529135,0.081643425,-0.034043975,-0.047192633,0.09844619,0.06534554,-0.019115431,-0.24811234,0.120178066,0.049938686,0.05145772,-0.19400623,0.14696498,-0.050469927,-0.053953208,-0.14278945,0.22547786,0.049303107,-0.30572113,-0.0004298196,-0.118935816,-0.015314041,-0.020890646,0.14552957,-0.08829859,-0.18456072,-0.056171052,0.040904902,-0.042969894,0.32283938,0.0068943026,-0.04972106,0.050643902,0.09741243,0.056771386,-0.55663294,0.041023448,-0.07084329,0.043069698,-0.24214157,0.12847716,-0.20390522,0.034317266,0.037691068,-0.44428205,-0.29398492,0.013211132,-0.17319053,-0.07324234,-0.23739107,0.01639187,-0.04450249,-0.16038491,0.04006141,0.09271713,-0.035512358,0.083428964,-0.10691013,-0.14938034,0.049795583,-0.32547772,-0.07322457,-0.123414405,-0.1732143,0.057567876,0.0711183,-0.03331282,0.060176726,-0.08944049,-0.021783859,-0.061890673,-0.026858956,-0.056481753,-0.02488177,-0.0891593,0.10019547,-0.10334253,-0.073469184,-0.023882143,0.090673715,-0.01669822,0.028302124,0.053847853,-0.1442233,0.059565403,-0.043379083,-0.14459671,-0.11377721,-0.0558445,-0.0756482,0.007817047,-0.026695358,-0.2771876,-0.48358798,-0.010865079,0.092307344,-0.14833865,0.02610568,0.0848256,-0.055465262,0.08949684,0.027696492,0.01696908,-0.032418143,0.14118354,0.11692861,-0.15520978,-0.09312315,-0.1541829,-0.5009775,-0.07618478,-0.13578042,-0.06253164,0.022393705,0.088066794,-0.08382755,-0.15239507,0.18679917,0.074520454,0.007692436,-0.23106655,0.017043527,-0.3643806,-0.018419234,0.007315417,0.13461126,-0.14808643,-0.02333445,-0.2820214,0.16232045,-0.18733561,-0.112769835,0.005627884,0.11014468,0.05875954,-0.28940928,-0.09148459,0.12420043,-0.1508219,-0.011698611,0.029032927,0.12663351,-0.11700125,0.03928772,-0.22547933,0.20763217,-0.37762305,-0.09397696,0.031753197,-0.026295256,-0.001498212,-0.17002131,0.050622415,-0.17657113,-0.00651783,-0.10054272,-0.11448754,0.17896576,0.259168,-0.14658765,0.1801652,0.115965605,0.17807494,-0.41601324,-0.017020354,-0.1550306,-0.39525008,-0.29157695,0.03775043,-0.030885944,0.008519552,0.07527682,-0.29996908,0.04510712,-0.01523221,-0.084172614,-0.024056882,0.028267471,-0.06845132,0.00922081,-0.2693916,0.011963461,-0.39293334,0.1475349,-0.1338953,-0.010462366,0.24330153,0.045588117,-0.43070757,0.11003468,-0.12624866,0.039006438,-0.033687264,-0.0003943279,-0.15810391,0.03469473,-0.09796211,-0.17094752,-0.12735927,0.11668316,0.0075713377,0.007303257,-0.021042736,0.06298956,0.11493767,0.30616236,-0.019457547,0.074040376,-0.011403538,-0.05975545,0.06971919,-0.27928212,0.063606426,-0.034430053,-0.19887727,0.022056563,-0.02849174,-0.047349777,0.10862976,0.048338857,-0.11412124,-0.13919611,0.078222245,0.16391246,0.16683225,0.054986328,-0.06574015,-0.1136481,-0.24157229,0.05618855,0.02943682,0.045060813,-0.04803217,0.031449515,0.4480277,-0.09729956,-0.24947791,-0.23697425,-0.08680744,-0.018922647,-0.107326604,-0.025400177,-0.10862097,-0.21781689,-0.22824179,0.22247039,-0.15233132,-0.051095173,0.032435685,-0.0058087423,0.15951915,0.07136968,0.16211332,0.1811073,-0.05386969,-0.03204981,-0.2788715,-0.18582477,-0.041042753,-0.23900618,0.016186308,0.06953198,-0.015499627,-0.39464298,0.054484356,-0.14626127,-0.014848765,-0.0415545,0.07466208,0.08132121,-0.014180025,-0.03943811,0.018892331,-0.2483048,-0.06475815,-0.2940752,0.19957872,0.0022609993,-0.08671469,-0.041549273,-0.18087533,-0.18454713,-0.08991465,0.02180539,-0.14067727,0.20031735,0.14088541,0.060180984,-0.027608559,0.34685484,-0.087633334,-0.47478977,0.1843252,-0.011363807,-0.15445691,-0.2058357,0.015131457,-0.057162452,-0.0866026,0.16521691,-0.26951125,-0.09862202,-0.063199304,0.06127419,-0.157056,-0.29695958,-0.0626985,0.124954976,-0.15528508,0.0576488,-0.008452953,-0.031427585,-0.060526233,-0.09264824,0.033144046,-0.061743747,-0.53948146,-0.11159254,-0.06335741,-0.049309712,-0.041553862,0.051517867,0.037339423,-0.09209037,-0.0892047,-0.02793628,-0.0848888,0.21322249,-0.05351025,-0.08480813,-0.068770446,0.018048398,-0.1770285,-0.109411344,-0.0394248,-0.17137529,0.059979275,0.16625379,-0.12379196,-0.3280964,0.018050475,-0.08275435,-0.11297515,0.01736061,-0.010833224,-0.13301666,-0.08590402,0.16493215,-0.36833972,0.06364724,-0.018913183,0.02577013,-0.069796525,-0.04012791,0.0055157947,0.015455384,-0.19212824,0.27250275,-0.035723813,0.035435304,-0.026241265,0.24990529,0.1427312,-0.12154107,-0.34255067,-0.17932318,-0.14898996,-0.06555562,-0.11337874,-0.18725152,-0.085301645,-0.1684198,-0.26394877,0.1642763,-0.09267554,0.12336754,0.01105516,0.0044034626,-0.29463133,0.049803715,-0.0652582,0.029742805,-0.1544168,0.050224785,-0.20109202,0.13580285,-0.014193537,-0.03789454,-0.15560631,0.0717905,0.11152137,-0.28976128,-0.14060682,-0.21528111,0.04554513,0.10539686,0.059412826,-0.22649945,0.006639841,-0.07804235,0.0019528187,0.13143021,0.05705688,-0.28244728,0.05151756,-0.02457329,-0.097151175,-0.069896124,-0.013861659,-0.043493442,0.0850167,0.025244085,0.2738098,-0.3966167,-0.007659046,0.33554816,-0.049263928,0.09762439,-0.041417737,-0.4107283,0.06587736,-0.03582879,-0.13230973,-0.3774138,0.17474987,0.6837754,0.067772485,-0.05381735,-0.33452582,-0.36559963,0.00033492912,-0.11771267,-0.09860447,-0.11498454,-0.13584572,0.027531214,-0.19546801,0.15355664,-0.074561335,-0.047946576,0.02062769,-0.08192123,-0.08800821,-0.2044494,-0.2148046,0.18842268,-0.104704745,-0.06649594,-0.00074651197,-0.02824848,-0.10765148,-0.15728675,-0.15482056,-0.13865802,0.015185158,0.13324568,0.033675633,-0.05323488,-0.16116406,0.11904007,0.0076901703,0.18769862,-0.13375574,0.13637528,0.033107523,0.22031732,0.010363954,-0.2824962,0.00610879,-0.0809131,-0.08687494,-0.009684904,-0.052440062,0.254266,0.020398205,-0.07191693,-0.29414502,0.014975035,-0.030219976,-0.32676435,0.072682984,-0.08172272,0.37414983,-0.0014663998,0.09619589,-0.0569475,0.018800804,0.006348734,0.059938494,0.024182677,-0.12329137,0.034612786,-0.35296106,-0.025023017,-0.17326142,-0.24998347,-0.012865211,-0.013792245,0.029725803,-0.1646239,-0.033542,-0.11551125,0.20994723,0.057441995,-0.19440122,-0.21459822,-0.16811807,0.009359577,0.10560063,-0.022129435,-0.10376647,0.082705185,-0.16462705,0.13073598,0.045690052,-0.16694146,0.040065374,0.17330861,0.019186623,-0.22144271,-0.080099165,0.20123856,0.04537998,-0.04819802,0.14555754,-0.27454153,-0.019423854,0.19718806,-0.1780433,0.21792006,-0.07909271,-0.22656955,0.024187243,0.040199626,-0.08930119,0.086952336,-0.040323284,0.13873067,-0.081223205,0.15248065};
float16_t conv2d_layer2_biases[16] = {0.17130484,0.009616623,-0.24259447,-0.048931472,-0.07865988,-0.04172365,0.025449058,-0.05709307,-0.021729471,0.12114743,0.049657498,-0.036618933,0.38722637,-0.017059134,0.07188688,-0.04863555};
float16_t conv2d_layer3_weights[3][3][16][32] = {0.027934084,-0.23171481,-0.23271027,0.10442286,-0.10915609,-0.1284673,0.08553037,-0.31469405,-0.12598212,-0.14656228,-0.28418422,-0.13604152,-0.03866211,-0.078742266,0.114157386,-0.09613107,-0.14205438,-0.13385914,0.09448832,-0.49735475,-0.1667757,-0.35417292,-0.2980007,0.04764829,-0.11864258,0.08129902,-0.15254131,-0.11961313,0.15075238,0.09499189,0.09258202,-0.26902035,0.09756308,0.012168774,-0.14261618,0.071386255,-0.063071206,-0.003590718,0.27665406,-0.35039562,-0.13978271,-0.004363815,-0.03613926,-0.016177623,-0.024283541,0.024483135,-0.13577114,-0.16597676,-0.15394893,-0.10090975,0.28157154,-0.32214707,-0.14987063,-0.22794981,-0.24209833,0.00728761,-0.007965966,0.075345725,0.009575859,-0.06139307,0.14462017,-0.049355257,-0.003910184,-0.026335098,-0.13345584,0.0481782,-0.04496163,-0.026949868,0.114263736,-0.13182762,0.047485296,0.15514581,-0.124694526,-0.11083136,-0.145328,0.051787585,-0.2016649,-0.21345016,0.07397061,0.06985959,-0.17107241,-0.13087955,0.022355607,-0.19975328,0.08744138,-0.05825241,-0.07494063,-0.07366596,-0.10733131,0.108335204,-0.16003412,-0.16966785,0.12139157,0.12546577,-0.049109157,0.048262592,-0.05297276,-0.049295817,-0.013764423,-0.049414486,-0.009727036,-0.0036211668,0.066282205,0.08251248,0.022274544,-0.05144277,-0.029206805,0.058337927,-0.19083415,0.057249848,-0.048343897,-0.14668572,-0.014348128,0.067033686,0.055181008,-0.13663757,-0.028089792,0.029178644,0.05589924,0.03953757,0.07034785,0.13393794,-0.13668178,0.06088375,0.1411766,0.10061108,-0.19973484,0.17510304,0.06919787,-0.11275099,0.04313985,0.107869096,-0.044218477,0.21164474,0.21495208,-0.2289594,-0.08238001,-0.21733011,-0.24070792,-0.21792907,-0.29494053,0.16078776,0.25273168,0.0012680641,-0.08326914,-0.07833315,-1.1933929,0.034415066,-0.05593012,0.14612089,0.017585963,-0.0050345217,-0.058517586,0.18157117,-0.13286819,0.1216623,-0.3273745,0.25181386,-0.17509162,-0.021895682,0.2773716,-0.13461395,-0.056853663,-0.04394197,-0.08479186,-0.07588244,0.120864384,0.0248367,-0.11326138,0.05498296,0.14865978,-0.09837966,-0.4182286,0.16834459,0.12877953,-0.12104098,0.079868324,-0.016857341,-0.2694515,0.20222123,-0.12091908,-0.052185345,-0.014477397,0.12345422,-0.031556167,-0.049925122,0.033491347,-0.08962357,-0.21332219,0.105458856,-0.24407306,-0.0956613,-0.15499912,-0.09588334,-0.25755227,-0.034903135,-0.10040682,-0.06920071,0.06619145,0.02751003,-0.09868527,-0.21909256,0.20582847,-0.13822293,-0.34313214,0.06817698,0.1783189,0.06755243,-0.15021384,-0.06794696,0.0024376886,-0.094003975,-0.0862767,-0.030714994,-0.24994487,-0.13514374,-0.027064316,0.24126512,-0.014145952,-0.1397485,-0.13964584,0.11154324,-0.02271237,0.06089036,0.23578694,-0.14530687,-0.09981639,-0.055765092,-0.13992819,-0.3222441,0.17978972,0.2617757,-0.35183677,0.14828393,0.105614625,0.15755549,-0.22385448,0.10798642,-0.5452609,0.30714217,0.033028297,-0.10677312,0.2620989,0.13548319,-0.00940457,0.33616585,0.0810391,0.06408152,-0.016527433,-0.19133936,-0.20366049,0.047132168,0.06280794,-0.21188207,-0.07332888,0.04897288,-0.11427011,0.1157291,-0.22979094,0.09507138,0.024367787,-0.00017878466,-0.08624449,-0.049413703,-0.13072751,-0.09778176,-0.013690257,0.06786766,-0.19984198,-0.34918764,0.15480474,0.05681764,-0.054010905,0.031962182,-0.040553674,0.026416421,-0.032760903,-0.18725795,-0.225912,0.0020348628,0.033138897,0.07522519,-0.106790684,0.027728816,0.099716365,0.19757669,-0.06674757,-0.08854042,0.09394205,0.08484795,0.047142554,0.1280617,-0.10769939,0.18835638,0.10494561,-0.024550764,-0.13876876,-0.20033753,-0.16534323,-0.1656823,0.15925676,-0.3887426,-0.07595523,-0.15448917,0.109908365,-0.029558564,0.15164809,-0.16185917,0.060995284,-0.3345767,-0.26137173,-0.070661925,-0.12214485,0.05863361,0.035886295,-0.1656183,0.026426028,0.012051331,0.066829145,0.09062604,-0.012370175,-0.06868814,-0.060904123,-0.066541195,0.17530832,-0.2613471,0.12348549,0.044141866,-0.29235557,-0.17237885,-0.1958238,-0.17802621,0.12522303,-0.49885002,0.0016484777,0.024238165,-0.022721563,-0.0023781334,0.10568453,-0.12944955,0.0012334331,-0.33460054,-0.6195509,0.06873228,0.0076527116,0.041344635,-0.3215272,0.0116670765,0.08591817,-0.13593395,0.14586341,0.027503848,-0.032889355,0.072890416,0.05289103,-0.023185456,-0.049307857,-0.18422164,0.073015876,0.11727545,0.04817583,0.26930118,0.0716992,0.2736462,0.08307092,-0.13545834,-0.25083473,-0.22942424,-0.07668006,-0.026097627,0.061899845,0.043821767,-0.038055524,0.04986031,0.2711503,-0.01571218,-0.092790745,0.0383725,-0.021785399,-0.11790315,0.068757206,-0.044930406,-0.28908348,0.18931909,0.23687696,-0.33966652,-0.52003163,0.0804194,-0.011765877,-0.3829112,0.22173661,0.042968176,0.053590424,-0.4163536,0.105971955,-0.10959039,0.14333253,-0.18719178,-0.040379964,0.11400569,-0.17909616,-0.021539418,-0.09637581,-0.40497714,-0.3228456,-0.4191122,-0.51726145,0.032724816,-0.06929257,-0.013336111,-0.020329509,-0.22652449,0.21738121,-0.14285174,0.25600338,-0.041913744,0.06792035,0.0065895077,0.0024458242,-0.112777,-0.004819167,0.11694016,0.13497812,-0.07134193,-0.10068311,-0.16724434,-0.053526618,-0.09463596,-0.14112203,0.03837087,0.22791615,-0.18038307,-0.09171736,-0.0009107926,-0.37752542,-0.090192854,-0.11165166,0.095413916,-0.12435828,0.07861857,-0.10909661,0.3291749,-0.11318618,0.17329602,-0.1993332,0.24693899,-0.20244001,0.042909827,0.011196919,0.046491966,-0.09730613,0.08696359,0.032540165,0.0049316855,0.04733782,0.1903271,-0.10852448,-0.30741557,-0.27333665,0.08137286,0.0072876285,-0.40940657,0.091076106,0.0798257,-0.042524576,-0.083596714,0.008585646,-0.013084925,-0.18792912,-0.25656375,-0.16423672,-0.15686296,-0.12606943,0.00025270326,-0.052073903,0.006708868,0.04761756,0.080207676,0.02631295,0.049297765,-0.04643261,0.057519305,0.050379492,0.0002322033,0.0028333683,0.09514695,0.00059569033,0.14457983,0.12817527,0.27855596,-0.36088294,-0.088105395,-0.017549792,-0.07739012,0.08493268,-0.018507594,-0.18907185,-0.008004177,-0.28430626,0.038169008,0.113919795,0.102452785,0.06716355,-0.07494702,-0.203072,0.07798285,-0.18754478,-0.07413583,0.0060146297,0.09760234,-0.08895608,0.13461135,-0.18122104,0.057627067,-0.22638327,0.078764975,-0.24951008,-0.21274696,0.065933615,-0.08430358,-0.031109197,-0.040773932,-0.26915067,-0.018210912,-0.06954992,0.11005304,0.15324369,-0.17254977,-0.16654,-0.0893389,0.023051327,-0.31884742,-0.09344865,-0.09128677,0.06460758,-0.12508516,-0.07809527,0.10212572,0.21410204,-0.08905553,0.114826486,0.17731695,0.10758079,-0.103408255,0.11276377,-0.2944402,-0.23777695,0.17828593,-0.22306164,-0.15807515,0.111976266,-0.41487986,-0.14713822,-0.019162325,0.02475574,0.043649454,-0.1465697,0.05346457,0.03754853,0.033021796,-0.07766018,-0.026083035,0.20116395,-0.1931217,-0.10997685,-0.11150686,0.05705106,0.008666009,0.04044747,-0.018812763,0.17335998,0.034017097,0.01185387,0.024011256,0.067294605,-0.043909766,0.04961697,0.07622409,-0.054976698,-0.059426334,-0.13067865,-0.17595373,-0.16748357,0.08015638,0.02826148,-0.054363377,0.013495934,-0.13509987,-0.20212756,-0.20952134,0.11092597,-0.0029882616,-0.07442766,0.012649685,-0.014423067,0.08810962,0.007814568,0.013463039,-0.036548425,0.030863581,0.03848991,0.039298832,0.0737929,-0.077758074,0.1527051,-0.023474542,0.024029514,0.13189238,0.06942852,-0.032826807,0.042317864,-0.053359,-0.06704599,-0.27807742,-0.070505574,0.031655952,-0.08442588,-0.123216555,-0.036007263,0.021930639,-0.13559529,0.13814303,0.13933517,-0.09098663,0.016735254,0.033335872,0.025497966,0.055179466,-0.15539965,0.04349193,0.018554071,0.07401678,0.027680272,-0.009883937,-0.09505637,-0.02121226,-0.022053106,-0.072945416,0.038103785,0.15445645,-0.11000566,-0.116797045,0.01902969,-0.019933807,0.06009674,0.09140955,0.20225956,-0.2440642,-0.115251854,-0.09671191,-0.14200985,-0.12715374,-0.21249327,0.14915326,0.18669048,-0.11933819,-0.085920885,-0.021799231,-0.9767958,-0.09434703,-0.081626944,0.10876605,0.048883904,-0.15342222,-0.0072956462,0.10119171,0.0074829543,0.0041427356,-0.27275994,0.2409193,-0.029529633,0.1037857,0.13051309,-0.12920184,-0.087985195,0.11940661,0.0122049255,0.013930523,0.06506944,-0.049179822,-0.102869414,0.11366138,0.15491182,0.017101297,-0.32029867,0.07259769,0.15003343,-0.12690796,-0.09055338,-0.10989753,-0.60917675,-0.15556635,0.011321581,0.077415586,0.07990433,0.02443266,-0.002515926,-0.002890782,-0.06119204,-0.05128666,-0.24099243,0.12274162,-0.16069692,-0.0034136856,-0.1333298,-0.24509355,-0.011579605,0.0043234886,-0.029196527,-0.07119968,-0.13900289,-0.05262647,-0.03679603,-0.21720636,0.10437552,0.12435841,-0.33626154,0.111940525,0.15201646,-0.08535069,-0.006714469,0.033886336,-0.060696494,-0.11066497,-0.157821,0.0880567,-0.041835938,-0.059850167,0.05240939,0.12582174,0.16989134,0.05990176,-0.18540579,0.12106504,-0.02034339,0.059299555,0.121613376,0.07226473,-0.43504184,-0.100788884,0.16337898,-0.4870365,0.17255218,-0.011646299,-0.13480312,-0.09038355,0.17956613,-0.2669528,-0.11780667,-0.072021,-0.39203385,0.3302401,-0.074675925,-0.084540956,0.1889887,0.055175625,0.28421628,0.16393688,0.020677984,-0.2241951,0.041818194,-0.124244705,0.0037375223,0.040863585,0.07822982,-0.21889895,0.100095905,-0.14209646,-0.15519874,0.054896276,-0.028727451,0.032176904,0.09133623,-0.008989916,-0.06429039,-0.0705553,0.043477565,0.107277244,-0.020156298,0.036785416,-0.011358656,-0.19831014,-0.035222664,0.03749904,-0.2434857,0.05090995,0.009375522,-0.0993207,-0.08337108,-0.10778819,-0.02544883,0.09534835,-0.18652304,-0.059238307,0.06824821,0.009778863,0.055549745,0.079650484,-0.010070055,0.013750324,-0.27134445,0.18425268,0.22457547,0.14896698,0.0366496,0.04966298,0.011305533,-0.0055707456,-0.13518244,-0.17369379,-0.21039894,0.12963392,-0.04003883,-0.25990686,-0.009332031,0.039460912,-0.03357065,-0.091335036,0.039470024,-0.21194668,0.058760654,-0.2817325,-0.057690427,-0.18697456,-0.14200695,-0.11199644,-0.007132362,-0.008053473,0.14376158,0.0034546982,0.10541289,-0.04409837,0.06660368,-0.095252335,-0.07568176,0.18069644,-0.015343664,-0.23172463,0.009468938,0.023108639,-0.022181481,-0.100223035,-0.01671759,0.031432766,-0.06934001,-0.53068244,0.0012695595,0.08080909,-0.06005581,-0.0147882635,0.12479506,-0.022650942,-0.06687729,-0.16620672,-0.2871295,-0.06087337,-0.009942519,0.06938585,0.16166665,0.07695046,0.054818787,0.013825757,0.053289518,-0.04074179,-0.09271717,0.10708136,-0.057812255,-0.13790107,-0.1000959,0.060332105,0.07402952,0.0072479956,-0.004663223,0.21169247,-0.016230173,-0.0788698,-0.1295643,-0.036218237,-0.14585471,-0.14031763,-0.13442135,-0.12348902,0.05257357,0.1218043,0.08642902,-0.01682475,0.05216018,-0.13984032,0.0761259,-0.030611098,0.0026418862,0.051945705,0.007898453,-0.02390281,-0.01693089,-0.20440067,-0.022881005,-0.4222356,-0.37363783,0.29428214,-0.12505405,-0.49727207,0.2990282,-0.02964439,0.039604638,-0.24629441,-0.013671647,0.20296136,0.16740294,0.069478944,-0.03137258,-0.13754234,-0.1463562,-0.09539385,0.0703694,-0.16158216,-0.19026978,-0.15215926,-0.30804962,-0.051428095,-0.18822387,-0.087105244,-0.14341171,0.034120027,0.42545974,-0.08734863,0.23778848,-0.03307288,-0.13650765,-0.043017246,0.08549219,0.0056330264,-0.08042172,0.0697824,0.074867494,-0.08120654,-0.23193368,-0.005798182,0.13662322,0.012689357,-0.22984256,0.08326762,0.1367787,-0.10911651,-0.15750809,-0.05676626,-0.299765,-0.067551166,0.01466079,-0.0046321824,-0.029406719,0.10053287,0.027282855,-0.018331002,-0.09291454,0.012600677,-0.011764471,0.18218948,-0.073389135,0.07324756,0.0911456,-0.012492922,0.015795646,0.08870223,0.16248462,-0.01182027,0.15085042,0.09668912,-0.011061164,-0.3969728,-0.18210538,-0.00932782,-0.055001438,-0.48098832,-0.036766753,-0.2559667,-0.037750658,0.059624955,0.02529108,0.037244692,0.023469338,-0.15371771,-0.06902212,0.02483382,-0.015114536,0.20189486,0.06052078,0.046422467,0.030438175,0.090680376,0.117680065,0.03782065,-0.07509445,0.005586305,-0.014328103,-0.1592143,0.06645016,0.03731125,-0.219416,0.14531074,-0.051031448,0.20674816,-0.40451553,-0.048215915,-0.07975566,0.0027309705,0.084260724,-0.0034849206,-0.037902404,0.054825626,-0.23044017,0.045170497,0.074911304,0.029999312,0.0735574,-0.10164647,-0.13038714,0.017202025,-0.007858104,-0.23985359,0.10563705,0.03491668,0.05302224,-0.06950389,-0.18316789,-0.27436626,-0.40808338,-0.010794395,-0.1421342,-0.19917251,-0.22273241,-0.17240703,-0.027008807,0.047321234,-0.15212294,-0.024112225,-0.20603229,-0.012090209,0.061105583,-0.15191177,0.05149222,-0.044230606,-0.0040455787,-0.13979176,-0.09393219,-0.30382302,-0.06706349,0.026896873,-0.1355509,0.1248611,-0.13570234,-0.13270344,-0.1094349,0.16913864,0.15350853,0.15676926,-0.083082594,-0.34985772,-0.07948709,0.061729938,-0.026343292,-0.09183953,-0.13438845,-0.34015018,-0.031155657,-0.09389243,-0.024885058,0.2691794,-0.10970169,0.06293409,-0.025475046,-0.18593164,-0.110440925,-0.062020432,0.10487858,-0.13023984,-0.31822062,-0.08857637,0.04593207,-0.18506213,-0.14581124,0.059496637,0.051500883,-0.0911599,-0.16116434,0.05202522,0.07894842,0.08408552,-0.13908745,-0.21008924,-0.120220244,0.08576743,0.04611743,-0.2789401,-0.2673365,0.14918281,0.11032489,-0.11183402,-0.0647665,0.07687087,-0.23948185,-0.2111813,0.11545496,-0.043521125,0.040700816,-0.11257064,0.0290784,-0.29003072,-0.0928394,-0.20618524,-0.01982268,0.045466717,-0.055217117,0.06149306,0.10601581,-0.10647203,0.07487505,-0.04185665,0.07935478,0.15090545,0.060501266,-0.36740613,-0.11824878,0.1414024,0.0343993,-0.34631026,-0.10468891,0.003432387,-0.047444947,-0.2760482,-0.026999405,0.013904512,-0.005083378,0.00996099,0.19066547,-0.014789521,-0.11390362,-0.032009624,-0.032488395,-0.009602689,-0.22133046,0.0014636226,-0.051321264,0.028662138,-0.09623545,0.081926845,-0.12773344,-0.0928174,-0.02817153,-0.023585508,0.097242504,0.17679018,-0.112626925,-0.09098838,0.081161246,0.06419111,-0.068542115,0.059406996,-0.05386856,-0.22297947,-0.13038853,-0.14266515,0.03224127,0.16938132,-0.25918478,0.19540028,0.27142033,0.06873998,-0.032554705,-0.10776373,-1.1827853,-0.17441012,-0.07205702,0.029697308,-0.0062530865,0.037992034,-0.02257,0.1363498,0.21536528,-0.087156065,-0.35928136,0.09458894,0.009824511,0.18615976,-0.056754645,-0.09953365,-0.03069177,0.10977432,-0.036900144,-0.0314677,-0.10135963,-0.015078522,-0.1176402,0.03897376,0.014388663,-0.048436962,-0.39462033,0.2149262,0.17617373,-0.090463415,0.064228125,0.009963322,-0.5034733,-0.04300643,-0.10977043,-0.012439898,0.1364845,-0.14369413,-0.021984493,-0.088931724,0.015799262,-0.058586545,-0.10441286,0.008177046,-0.005807338,0.057825733,0.011329465,-0.3037984,-0.16397727,-0.048734035,0.08048053,-0.030108407,-0.2518814,-0.08236345,-0.09414031,-0.17996067,-0.025023408,-0.06327971,-0.18791004,-0.20721583,0.26181933,0.071934514,-0.059956193,-0.050608207,-0.111175284,-0.18988478,-0.28781912,0.03745785,-0.14441943,-0.00963196,-0.12905578,-0.025309986,-0.05925115,0.000702469,-0.078961305,0.1801393,-0.024797333,0.22587818,0.080193624,-0.18266949,-0.56831175,0.072991885,0.0021904337,-0.41835,-0.13070877,0.16842264,0.10328654,0.10539389,0.10226058,-0.21362501,0.14833665,-0.16588381,-0.508817,0.2785699,-0.08744942,0.053547192,0.19691744,-0.052497566,-0.15434107,-0.036466084,-0.007835718,-0.1300987,0.05760524,-0.10961001,0.23965082,0.071407974,0.07672176,-0.28741398,0.12627026,-0.33501166,-0.047502417,-0.023900138,-0.08194531,-0.0067555048,0.023567125,-0.0990775,0.033262737,0.07015921,0.03434822,0.13803427,0.119804025,-0.092151746,-0.14115304,-0.31997994,-0.011626362,-0.119103685,-0.020680327,-0.053626027,0.044130176,-0.23917566,-0.024758944,-0.17282422,-0.017865075,-0.07378182,-0.16173057,0.09845433,0.075965255,0.077661745,-0.0075536333,0.023118887,0.017963,0.15511969,-0.08917749,-0.11968425,0.1672611,0.12320005,-0.15915592,-0.12421026,-0.13189298,-0.105536774,0.06808335,-0.11664159,-0.079296455,0.14952028,-0.11458642,-0.3582453,-0.1340863,-0.1335314,-0.11469815,-0.084851496,0.15472296,-0.011472986,0.13283235,-0.31006652,-0.0723755,0.047030408,-0.037334107,-0.08013785,0.079792924,0.044079915,0.09999879,-0.11299138,0.00087321136,0.09645244,-0.23815137,-0.024201589,-0.06546646,-0.15097943,0.18178517,-0.08941128,-0.22504076,0.19047284,0.07857753,0.033856593,-0.049790848,-0.029857766,-0.29584256,-0.5148445,0.011075501,-0.18393807,0.20946519,0.0073274197,0.096960805,-0.13836633,0.25233284,-0.3330197,-0.22742611,-0.05909863,-0.1397433,-0.075150296,0.11165339,-0.07068373,0.08459452,0.034130763,0.1175494,0.025808763,-0.06709439,0.34957615,-0.060124323,0.03757973,-0.087908484,0.14775547,0.2234238,-0.011977497,-0.058721658,0.04196131,-0.041266426,-0.24421354,-0.1413764,-0.1809616,-0.30524042,-0.07851538,-0.09411562,-0.15231915,0.11066334,0.011835442,0.15177849,0.04470054,-0.015681015,-0.04399044,0.0353779,0.10197798,-0.08753024,-0.15718277,0.0918862,-0.026641423,0.037450656,-0.2543882,0.17321064,-0.5307089,-0.3519897,0.07977372,-0.08826807,-0.4502162,0.08749618,0.20283487,0.024254633,-0.2253434,-0.028258108,-0.054312527,0.051166106,0.03949712,0.023955515,-0.0526438,-0.10861771,-0.014245122,0.0025363646,-0.04324234,-0.25103542,-0.36236286,-0.45637757,-0.085342795,0.01940739,-0.13940921,0.116989836,0.002805564,0.2720674,-0.034947682,0.20424427,-0.16091464,0.060324937,-0.13555142,-0.0660813,0.034267493,-0.058423296,-0.009471799,-0.021983584,-0.24788727,-0.20002018,-0.047148623,0.07683223,0.025739787,-0.23762971,0.18732117,0.14635992,-0.14360575,0.09496809,-0.074754715,-0.4054526,-0.18710904,-0.12060957,0.030350154,0.0040088044,-0.03387272,-0.025019161,0.033016745,0.08482574,0.033919264,-0.33738437,0.16142184,-0.06385761,0.29627296,-0.12876965,-0.34813014,0.07988723,0.057280537,-0.08146841,-0.41740602,-0.12556034,0.14519338,-0.036650572,-0.2376643,0.055467095,-0.02032572,-0.0685679,-0.38152295,0.08027037,-0.18495564,-0.11345683,-0.10256705,-0.052464075,0.11759094,-0.25251362,-0.33730802,-0.18248759,0.03335218,-0.15045656,0.0024197039,-0.030969836,0.0068205865,0.10734431,-0.09298677,0.0548894,-0.15919995,-0.101083085,0.11887271,0.09194004,-0.08871287,-0.12007475,0.19266868,-0.3191582,0.03895536,0.10542724,0.13871858,-0.3364057,-0.08812422,-0.13773492,0.006634395,0.071266,-0.032352716,-0.11280885,0.026912197,-0.22951283,-0.03419575,0.15615028,0.028285332,0.058166567,-0.09993582,0.008232502,0.07293781,-0.20263594,0.023597851,0.037268966,0.12796389,0.10612999,-0.095874265,-0.08343433,-0.02095939,-0.07750408,-0.018783413,-0.07518797,-0.11987198,-0.11158213,-0.1131296,-0.038108055,-0.024223493,0.20542726,-0.020706793,-0.07887079,-0.12708148,0.1395744,-0.28611216,-0.07398472,-0.0066953627,0.10389972,-0.22549984,-0.11027337,-0.24601418,-0.24877538,-0.12174484,-0.020742143,0.11898589,-0.24807873,-0.17051874,0.087580346,0.1584424,0.001328648,-0.16232854,0.08050645,0.03828645,0.021316206,0.19455825,-0.17747298,-0.054366548,0.08559527,-0.4432765,-0.077815704,-0.06517028,0.04159116,-0.049361456,-0.07725914,-0.04000644,0.17215852,0.10611534,-0.04152657,-0.013210406,0.22332755,-0.20706071,-0.16506754,-0.10824114,-0.13544875,0.05042245,-0.12703659,0.23039454,0.14445339,-0.11229189,-0.04508108,0.03720485,-0.19011153,0.0063490034,0.2083081,-0.007500123,-0.14291684,-0.103386566,-0.07697894,0.011740048,0.1507092,0.05873869,-0.12786396,-0.103988655,-0.14452432,-0.08049709,-0.03850583,-0.355318,0.14155042,-0.012934524,-0.0701126,-0.059834126,-0.075280085,0.1230381,-0.028791234,-0.05819208,-0.15454279,-0.14904508,-0.12478071,0.02908431,0.05482877,-0.060720295,0.08900616,0.04771452,-0.19302826,-0.041463394,-0.060863305,0.052325312,-0.12539248,-0.09074788,0.0062740436,0.022584697,0.09839105,0.0023546752,-0.10648525,0.10396525,0.16942431,-0.020551417,-0.0012012941,0.0070550703,0.03741048,-0.1864567,-0.04139203,-0.014919662,0.020053906,-0.11960523,-0.109111324,0.037719484,-0.005629071,-0.105074026,-0.11246961,-0.014901151,0.024069706,-0.13458453,0.0465827,0.0055169202,-0.15491673,0.08707305,0.17470244,-0.08529801,0.11808093,0.029444812,-0.18814082,0.09487124,0.1147103,-0.28972682,-0.12553756,-0.02915615,-0.082373716,-0.08279393,-0.11338091,0.13772474,0.1825113,-0.047826644,0.081923015,-0.04409684,-0.92163956,0.10131026,-0.0046598,0.099028595,-0.06996865,-0.20354109,-0.11365716,0.10591521,0.13730113,-0.069189176,-0.34206063,0.21070258,-0.18629017,0.057417274,0.18533912,-0.11464935,-0.0016050354,0.04452863,0.0017404165,-0.042244606,0.08216858,0.083686806,-0.161365,-0.016023822,0.2559771,0.041774973,-0.23142526,0.15189838,0.15651006,-0.014016559,-0.1236149,-0.08027696,-0.3575438,0.15966626,0.03976257,-0.0002510268,-0.027746469,-0.122480534,-0.05583763,0.075205855,-0.10001008,-0.1221631,-0.1540182,-0.0084398985,-0.2705153,-0.052107964,0.088669725,0.06160541,-0.24907066,-0.10513559,-0.22547477,0.040925603,0.075163424,-0.039112493,-0.07072404,0.05126962,0.1855956,0.22802417,-0.21304467,0.062046397,0.11477273,0.034443624,-0.08113941,-0.0755635,-0.031948164,-0.23031658,-0.1530237,0.085596226,-0.19658718,0.023699503,0.018992858,0.24234888,0.0015661544,-0.06300597,-0.07561664,0.21216208,-0.14004388,-0.106209636,0.2778306,-0.24205513,-0.34632993,0.0046231174,-0.012544753,0.002373472,0.07745054,-0.0075714616,-0.1153173,-0.07633273,-0.108070016,-0.12579499,-0.10443128,0.14922607,-0.49763936,0.047451083,0.16688707,-0.13036986,0.2405092,0.07802475,-0.16748534,-0.0032464294,-0.12163945,-0.053775713,-0.11526395,-0.19152324,0.11594887,-0.19617306,0.06862485,-0.36988297,-0.17132564,-0.009586772,-0.0124106845,0.11307501,-0.2390957,0.06645089,0.07491492,-0.0522101,0.035311062,-0.038988847,-0.06478608,-0.06682503,-0.0013191625,-0.13968474,-0.20812699,-0.23165622,0.113946386,0.0017857678,0.11887201,0.0020392598,0.041478604,-0.063389994,0.1513066,-0.059778977,-0.11406381,-0.119168736,-0.04116516,0.05848748,0.19324026,-0.11418725,-0.005058368,0.0044343467,-0.1214957,-0.0878779,0.094329186,0.11860421,0.118665196,0.060533136,-0.24679734,0.076826505,0.025989378,-0.0684578,-0.07780979,0.11880396,-0.045221653,-0.06147789,0.1639795,-0.3557808,-0.0012214881,0.029220678,0.06177462,-0.0476174,0.20144214,-0.32763046,0.08085903,-0.15610422,-0.035365183,-0.02665985,-0.011971621,0.05258426,-0.097846605,-0.13567999,-0.020845223,-0.1181185,-0.041928668,0.09431158,0.10208741,0.018966135,-0.22611883,0.09178619,-0.13094151,-0.11715761,0.15569255,-0.0041077966,-0.120733984,-0.090212405,-0.015443388,-0.07373523,-0.073093474,-0.49708226,-0.050350368,0.024190368,-0.14241454,-0.011208896,0.12091159,-0.02471536,-0.0747098,-0.38238287,-0.5033567,0.039717596,-0.15274008,-0.057785515,0.14971596,0.07707734,0.103562586,-0.080967836,0.04874917,0.101816505,-0.15493478,-0.15904458,0.010783402,-0.08314772,-0.1423086,-0.2454052,-0.07873122,-0.03633891,-0.08812776,-0.056198083,-0.06430408,0.21691974,0.15987583,-0.1247234,-0.117238805,-0.053040817,-0.07557627,-0.204734,0.078949414,0.123667926,-0.1116803,-0.05380704,0.14743033,0.08652809,0.038284156,-0.10495074,-0.09032223,-0.06756558,0.05726783,-0.035264008,-0.066659994,0.060682863,0.110065855,-0.19004767,-0.32695082,0.05301451,-0.20891996,-0.3815869,0.12259353,0.068294905,0.103796735,-0.09996806,0.2703953,-0.035648834,0.19652002,0.14842877,0.030588616,-0.11671793,-0.046726216,-0.036288552,-0.1156841,-0.23460913,-0.054287083,-0.14740616,-0.19592452,-0.03463929,-0.09283989,-0.11647851,-0.24452598,0.02524953,0.19764447,-0.1506216,0.05966726,-0.1245616,0.12527682,0.014900829,-0.010398814,-0.026521822,-0.022195857,0.06518162,0.09306305,-0.20777471,-0.06735007,-0.0594704,0.20899826,-0.0037706324,-0.0011819219,0.058468368,0.24870716,-0.17885806,-0.0715049,-0.0044012927,-0.34594232,-0.14744416,-0.16948621,0.13403901,0.093552716,-0.039713956,0.037561625,0.07740995,0.031365965,-0.010593611,-0.25364277,0.18695737,-0.19340618,-0.13748932,0.061658368,0.006017983,-0.04774711,-0.035539176,0.02974059,0.17537406,0.07067113,0.043750722,-0.01733324,-0.030005984,-0.083692886,-0.13958949,0.13987498,-0.23848209,0.15632087,-0.09303808,-9.34021e-05,-0.08665144,0.09564524,-0.14703138,0.0471699,-0.05097431,0.0065357885,-0.080223255,-0.15642494,0.13359804,0.013934148,-0.0028563659,0.10386223,-0.030673565,-0.030760309,0.13137008,-0.017657531,0.03254813,0.09207085,-0.123326905,0.10885245,-0.0018654863,-0.076114334,0.024910057,0.10466752,0.062836014,-0.17875205,0.022753257,0.05042987,-0.016147468,0.123099186,-0.030093584,-0.06477049,-0.055725098,-0.2464975,0.022509752,-0.017270159,-0.07129497,-0.10730003,-0.045474533,-0.108170874,-0.050229706,0.07278552,-0.09136056,0.032846693,0.1186421,-0.12386908,-0.117920876,-0.02163023,-0.1495846,-0.20330878,-0.300119,-0.08979117,-0.22905627,-0.040985595,-0.32699394,-0.08668262,-0.14216775,-0.03035543,-0.20731415,-0.11746678,-0.026622286,0.18380734,-0.20821218,-0.015289683,-0.16380368,0.05028364,-0.21187909,-0.19185632,-0.0945875,-0.004109053,-0.10857035,-0.015747616,0.077723764,0.18056056,-0.15445141,0.06595646,0.06645313,0.036805257,0.09554882,0.024411693,0.018269964,-0.108591326,-0.05482105,-0.03322954,-0.01712142,-0.09289395,-0.44560418,-0.15228963,0.02743941,-0.0034859702,-0.08862474,-0.12899905,0.16872664,0.06410804,-0.091868214,-0.13410392,-0.014253413,-0.1095445,-0.052619282,-0.071405776,-0.060269985,0.0939697,-0.22383237,-0.0025569417,0.17101046,0.009140273,0.089195855,0.0033460732,0.09599501,-0.20571804,0.0074716564,-0.075564176,-0.0686583,-0.02735914,-0.21047413,-0.018207993,-0.07218432,0.06103391,0.07586341,-0.057757627,-0.15955943,-0.014582255,-0.014398103,-0.17695709,-0.23227672,0.09008575,0.06845955,0.017626554,-0.049379703,-0.02186552,-0.057193983,-0.028772112,-0.03737076,-0.059055332,0.010983503,-0.033563938,-0.004143667,-0.06436405,-0.16399303,-0.0041480428,0.05392343,-0.084191345,0.13883786,-0.076273866,-0.122814514,0.14135674,0.12867238,-0.053938996,0.07687955,-0.026448134,-0.13014749,-0.082078606,-0.006275437,0.21610041,0.042753473,-0.008928206,0.08833308,0.09742116,-0.20871733,-0.026027057,0.019376563,0.04144424,0.15421398,0.073777914,0.037067402,-0.01465328,0.059641913,-0.07253472,-0.053846482,-0.24197234,-0.05267693,-0.055350415,0.047967933,0.034986813,-0.024278395,0.15409093,0.031999588,0.107923485,0.045844793,-0.08786033,0.09431605,0.19559199,-0.29531208,-0.0869312,-0.012833166,-0.008101471,-0.104875766,-0.23962407,0.0147053655,0.16215119,0.108169176,-0.19077821,-0.16555369,-0.6727065,-0.1262505,-0.0058949897,0.019120583,0.11493415,-0.18443443,0.07902499,0.02171265,0.06448211,0.07137601,-0.28292623,0.09339966,-0.14074834,0.010606943,0.0041747997,0.079263955,0.023736471,0.110247575,-0.12704772,-0.07745295,-0.064139806,0.068368465,-0.14399593,-0.008636429,0.18853024,-0.042438794,-0.216478,0.08256484,0.06723764,0.009708988,-0.10666427,0.0044052065,-0.40644982,-0.071178034,-0.02151882,0.10082225,0.10544158,-0.068506904,-0.117757455,0.032350294,0.005988979,0.02164626,-0.071987204,-0.028450659,-0.038110692,-0.11406699,-0.021967372,-0.014815185,-0.06631681,-0.2569586,-0.04667647,-0.091447026,-0.14357378,-0.13476561,0.12526265,0.079916246,0.10268042,0.074517496,-0.13173592,0.027585527,0.022203838,0.06926239,0.10360437,-0.040257394,-0.063349254,-0.041619338,0.053951364,0.12699907,-0.0643607,-0.04572665,-0.073283575,0.09702035,-0.033573207,0.04836329,-0.07796678,0.10823566,-0.09269427,0.06627107,-0.052723184,-0.09407087,-0.4635227,0.13533305,-0.1265726,-0.11612504,0.29677844,-0.06815179,-0.18556474,-0.21600536,0.013895006,-0.19806743,-0.090694875,0.0766105,-0.4276017,0.13820283,0.09857297,0.08609911,0.2256861,-0.019493347,0.29431343,-0.07310261,-0.033575635,-0.071203284,-0.103461474,-0.14544167,0.11860772,-0.099587366,0.076382704,-0.3107748,-0.18305503,-0.32495275,-0.16570236,-0.030572219,-0.08917968,-0.12899238,-0.01508764,0.1039745,0.04055438,-0.045453742,-0.027964665,0.0083927745,0.06562427,-0.010708602,-0.02881768,-0.1977524,0.023493156,-0.0710648,-0.15232222,-0.02174243,0.05900762,-0.013081026,-0.07570364,0.042059813,0.043059662,-0.14336184,-0.034137253,0.02844581,-0.07562605,-0.029765032,0.08542738,-0.06709845,-0.060262073,0.05440081,-0.093186416,0.19614415,0.09581432,0.030993998,-0.19541878,0.1782666,-0.042984363,-0.15206581,0.0656246,0.1732058,-0.0012239313,-0.06200105,-0.05694278,-0.30472767,-0.06475019,-0.099074475,-0.16412595,-0.14754836,0.22166853,-0.13610595,-0.017047133,-0.2443591,0.059686795,-0.01464807,-0.07050152,-0.06824708,-0.060106583,-0.18060435,-0.010142602,0.03340695,-0.0354051,-0.059751555,-0.07084619,0.048889086,-0.15089163,-0.053335566,-0.015592241,-0.27961367,-0.067276835,0.033721782,-0.12130824,-0.047702517,-0.020964315,-0.15158509,-0.039362326,-0.29341376,-0.091742314,-0.08434562,-0.014399172,-0.10133062,0.06945901,-0.037442014,-0.075185694,-0.26965407,-0.13324486,-0.020076284,0.0845039,0.09183175,0.14725927,0.03605047,0.14069587,-0.14892362,0.12937792,-0.085453145,-0.011860563,-0.21219335,0.070740044,0.014241808,0.054079954,-0.10808241,0.090037204,-0.04921016,-0.01088068,-0.06557405,-0.03905984,-0.008105283,0.10169993,-0.22059707,-0.008112375,0.13182497,0.059190053,-0.08485115,0.08576888,0.04475857,0.024955513,-0.047889132,0.06143992,-0.11200211,-0.07229272,-0.023021933,0.01937569,-0.093798906,-0.060706515,0.12874529,0.1352022,-0.21354197,0.034924954,-0.102287516,-0.10651034,-0.042861857,0.00015691279,-0.16691191,0.12961185,0.074465066,-0.090527214,-0.057306137,0.17764556,-0.0059852554,0.10875935,0.3022126,-0.17789301,-0.17285821,-0.08150008,-0.07781948,-0.10437706,0.012142476,-0.101457536,0.010451405,-0.01571924,0.1928058,-0.029692138,0.038429826,-0.069640234,-0.054176744,0.11411883,-0.10766233,0.14971963,0.066349626,-0.05135951,-0.072597936,-0.0332346,0.12004719,-0.006425861,-0.048460096,0.09757846,-0.17546186,-0.06600179,0.036257356,0.13004678,0.25904396,-0.016962575,0.16593915,0.10956788,0.10768602,-0.17889228,0.059517484,-0.20521295,-0.14316902,0.012106905,0.01053886,0.048958104,0.00022685422,-0.09984302,0.074289925,-0.10350569,-0.13996929,-0.1898894,0.15987673,-0.12010082,0.046533626,-0.0046092286,-0.030144978,-0.074470416,-0.024898173,-0.059413724,0.03711908,-0.074652396,-0.013394018,0.050368883,0.012184508,0.027604852,0.062712684,-0.06309341,-0.3193923,-0.03152665,0.00784838,-0.10491378,-0.10230498,0.032836743,-0.047330033,-0.04423136,-0.10379741,0.048737347,-0.045110818,-0.06194407,0.14619027,-0.04422492,-0.021824514,0.08332519,-0.020383608,0.031946044,0.02256531,0.06751217,-0.1943967,-0.04729994,0.049988285,0.11681847,0.013000196,-0.11270664,0.068554,-0.03962915,0.0028899505,0.06359394,0.0305635,0.03948852,-0.045719724,0.13380943,-0.05322327,-0.10164626,-0.028241133,-0.25800815,-0.11677861,-0.02257959,-0.06727154,-0.12536758,-0.0087498445,0.0837166,0.14383696,0.009210124,-0.13240524,0.06664009,0.004015958,-0.14269957,0.0948979,-0.23560868,-0.10216783,-0.17707312,-0.116270185,-0.05138221,-0.12200925,-0.014808829,-0.17017373,-0.092183106,-0.08888512,-0.09447004,-0.1603524,-0.12289334,-0.07635499,0.054759376,-0.3288883,0.048982844,0.031598117,-0.010847459,0.05164664,-0.28087068,-0.30584112,-0.18500268,0.020014873,0.017382557,-0.011974326,0.03241252,-0.101167545,0.009177707,0.15998037,0.01077329,0.22707324,-0.0695152,-0.101186335,-0.024776092,-0.059342217,-0.0855157,-0.057445828,-0.004955081,-0.5202582,-0.095222495,0.05914869,0.16844165,-0.13471591,0.057662517,0.08622762,0.07872,-0.31197822,-0.24372132,-0.014772081,-0.015167567,0.021526795,-0.04143158,-0.28385714,0.14518334,0.0049569905,-0.17495282,0.21161321,-0.104435794,-0.071484044,0.022392953,0.22816376,0.07064474,0.3412091,0.123968355,-0.15799382,-0.038339186,-0.19791955,-0.10549673,-0.27389205,-0.16443874,0.15368222,0.034701988,-0.020385684,0.013633295,0.05972751,-0.20715964,-0.23949471,0.05445955,-0.13700151,0.10884274,-0.040006466,0.04508061,0.027648529,-0.116979964,-0.23480394,0.066067934,-0.02650514,-0.05118786,0.059372548,0.24375989,0.03409692,0.084612794,0.10576085,0.07074444,0.010138058,-0.16479838,-0.15437879,-0.056145824,-0.13330637,0.037472226,-0.14353669,0.016616054,-0.032150637,0.060834512,0.027592126,0.0041930135,-0.18206216,0.026402218,0.1293359,0.12590307,0.03997417,-0.02591475,0.03327169,0.004957618,0.13518159,-0.057689145,-0.08517711,0.16744585,-0.028672362,-0.071867764,0.013817342,-0.12359721,-0.0832252,0.030722387,0.0040684673,0.055888914,-0.03978278,-0.0037572621,-0.07925261,0.04580118,-0.042354915,-0.19663271,0.05716041,0.10806112,-0.37855107,-0.10257535,-0.10288326,0.13251188,0.04797726,-0.25687996,0.17566569,0.16652292,-0.08615467,-0.023433259,-0.02900607,-0.668423,-0.15880515,0.0037954745,-0.0829846,0.012876239,-0.055824894,0.046039596,0.0008257147,0.15593019,-0.14078462,-0.2895634,0.20209679,-0.1495614,0.07829929,-0.052498113,-0.09257023,0.03247648,0.059780136,0.025487794,0.048295215,-0.095293716,-0.07948839,0.011714731,-0.100962184,0.22290863,0.049553428,-0.24980746,0.19521922,0.14195152,-0.07419435,0.006890556,-0.015263442,-0.5925368,0.02410895,-0.011170285,-0.03288338,-0.091244645,-0.0631734,-0.05255717,0.03795183,-0.08868426,-0.07504771,-0.14927143,0.07545847,-0.08539455,-0.035366822,0.039358508,-0.2209949,0.0023408076,-0.08359214,0.049720902,-0.11286526,-0.22666036,-0.22227706,-0.046357393,-0.025522806,0.21094288,0.03875103,-0.112724714,0.05451962,-0.041633755,-0.21672367,-0.1410939,0.036926832,-0.062500805,-0.20756033,-0.21522346,-0.028025381,-0.049264207,-0.13236713,-0.050099645,0.064593285,-0.09234279,-0.02295987,-0.27664575,0.24112523,-0.01612956,-0.10594385,0.20915714,-0.028836356,-0.425658,-0.0125562325,-0.011724047,-0.18428144,0.08116318,0.108046226,-0.35813296,-0.2647851,0.10449156,-0.06124822,-0.20860095,0.14296362,-0.37934822,-0.13025786,-0.053872008,0.0549875,0.21180992,-0.12788571,0.049017746,-0.5414307,0.007881052,-0.06132636,-0.1482025,-0.22811301,0.06983186,0.020823391,0.16448657,-0.2659187,0.004040971,-0.364673,0.005299267,-0.09870709,-0.034777835,-0.2352779,-0.0091366945,-0.18746091,-0.0593032,-0.031299487,0.007693067,-0.18146539,-0.03391073,-0.00211371,0.07654952,-0.24971744,0.08919452,-0.11379979,0.042144492,0.073124886,0.06911263,0.07555181,-0.22684525,-0.18735075,0.040888954,-0.12052009,0.042850025,-0.044193145,-0.0065797702,0.0015544376,0.0650771,0.07059987,0.041270547,0.083660804,-0.17251357,0.12636378,0.23631953,-0.060782015,0.0944913,0.10447265,-0.19256276,-0.1372741,0.120716736,-0.01898723,0.047973555,-0.07076357,-0.0457632,-0.21192303,-0.122019455,0.048716344,0.02680844,0.067336135,0.1203488,-0.12987691,-0.020098284,-0.23080051,0.18150274,0.001114367,-0.17636427,-0.04444057,-0.01937793,0.03904228,-0.08871313,0.021306789,-0.056316394,-0.0053641084,0.17522027,-0.018187791,-0.08155554,0.025539149,-0.205952,-0.20249194,-0.19688402,0.03742596,-0.1414865,-0.019212108,0.026369307,-0.07906398,0.047706597,-0.48048183,-0.028348103,0.029071918,0.036289442,-0.077887155,0.06545513,0.04652614,-0.036957286,-0.36958578,0.024764942,0.0019693354,0.01180601,0.102612615,0.13589627,0.049717158,0.13250904,-0.008186075,0.11245978,-0.0044393726,-0.11852112,0.124922514,-0.12395048,0.14934695,-0.010832878,0.2444028,0.20446873,-0.036319908,0.044781167,-0.14134814,-0.020608043,-0.062483836,-0.08363288,-0.19006206,-0.12129022,-0.06766691,-0.1956097,0.10247917,0.07663706,0.11432207,0.06998327,0.025754131,-0.16784887,-0.021376818,0.06610708,-0.0058911424,0.12474856,-0.14101474,0.01805722,0.05636294,0.15666804,-0.15720302,0.1290484,-0.03995121,-0.35369673,-0.045836207,0.038255114,-0.1282161,0.24714312,-0.064499326,-0.19084235,-0.1263804,0.04172299,-0.21268353,0.03494393,0.1934388,0.017309435,-0.030589689,0.092560336,0.07004461,-0.06731514,-0.017220424,-0.060605057,-0.033373166,-0.08947878,-0.0070553725,-0.1850384,-0.012497696,-0.19253893,-0.11972834,0.2088473,0.0002865207,0.13661672,0.075321905,-0.045556344,-0.2730749,-0.0857954,-0.1277579,0.24276088,-0.015721913,-0.104044564,-0.22570544,-0.11505697,-0.018602995,0.07683452,-0.1986432,-0.13749634,0.1884436,0.044873796,-0.11688573,-0.0020382614,0.0040627616,-0.21052541,-0.19225027,-0.105272524,0.039850354,-0.034540586,-0.042480495,-0.02075395,0.17468587,0.08854903,0.062334247,-0.19449608,0.11057915,-0.02434341,-0.05536984,-0.019469243,-0.1691832,0.05416976,-0.12667324,0.10516574,-0.28254706,-0.06642305,0.10352133,0.14210519,0.046366274,0.1072837,-0.04470455,-0.02277999,-0.26601103,0.023136662,-0.023283588,-0.048229568,-0.019618727,0.024094198,0.036670312,-0.020910017,-0.16193682,-0.028183326,0.008591473,-0.17419949,0.06968021,-0.2172269,0.0187527,-0.02992869,0.009291811,0.0021214525,-0.07185194,-0.056786604,0.08442212,-0.037630495,-0.08433848,-0.16448514,0.09090786,-0.2684474,-0.036339253,0.055585295,0.026889116,-0.19004548,-0.0071750577,-0.0597241,-0.0439034,0.055949572,0.08834324,-0.046220303,-0.15996069,-0.28984487,-0.07907669,0.09381738,-0.0066654035,0.033637624,-0.14217786,-0.10890208,-0.009241203,-0.13598655,-0.06447838,-0.07103144,0.11573849,0.0070851888,-0.08888971,0.17791022,-0.0729001,-0.23933458,-0.061992448,-0.09800642,-0.26065132,-0.039852235,-0.096425965,-0.113582484,0.044453625,0.16241205,-0.06369921,0.0724253,-0.106162384,-0.012665176,-0.0236481,-0.10325745,0.050272796,-0.059878264,-0.182016,-0.26667014,-0.17131758,-0.26991904,-0.0074416045,-0.16026202,0.043535396,0.0042905444,-0.10161719,0.058315128,0.1686621,0.11244068,-0.056819603,0.19111148,-0.09307286,-0.0034250063,0.1987123,-0.05916328,-0.07433244,0.04366896,-0.4956055,-0.1631963,-0.07840697,0.27842316,-0.1072298,0.14435557,-0.056076128,0.24104156,0.022786072,0.07678746,-0.03563825,0.23041406,-0.23651443,-0.23541187,-0.052233398,-0.023127379,0.039114293,-0.18765816,0.15654495,-0.026827676,0.0039379555,-0.09338032,0.17217308,-0.26963785,-0.051692314,0.1369023,0.025401013,-0.4987716,-0.069871575,-0.037141204,-0.13102391,-0.04389456,-0.04568674,-0.116248846,0.046286453,-0.018511673,-0.07445054,0.070780024,-0.33321837,-0.0058166133,-0.055136207,0.10403888,-0.032454118,-0.028588904,-0.019182669,0.04653492,-0.071014486,-0.18846174,-0.12375955,-0.0937828,0.15429752,-0.05752079,-0.13922988,-0.0064259097,0.07743837,-0.25457096,-0.07803895,0.06924477,-0.10531956,-0.059678443,0.06131983,-0.037298813,-0.11279658,0.11491182,-0.1629776,-0.063513115,0.03002917,-0.044646833,-0.038300045,0.13385847,-0.04352658,0.12575991,-0.0959692,-0.13152601,-0.051967647,0.116718546,0.023505814,0.013677797,-0.09101036,-0.11919908,0.053070486,-0.11320729,0.056351084,-0.046498597,-0.013263558,-0.050923094,0.016804999,-0.29294664,-0.064809754,0.19729161,-0.010873523,0.053659454,0.21172445,-0.16465913,0.045841027,0.20437977,-0.3517376,-0.101138994,-0.03599495,0.07790328,0.19834472,-0.051601026,0.05195113,0.20138618,-0.057346936,0.021154283,0.03263472,-0.97998613,0.09282373,-0.028689876,0.08323376,0.06888702,-0.07378724,-0.0577705,0.22412609,0.06602679,0.104967825,-0.39726084,0.15476891,-0.27527568,-0.10025111,0.14678688,-0.122121684,0.08391794,0.013988381,-0.13956751,-0.12993328,0.12093071,-0.22718576,-0.19898531,0.1610534,0.15519711,0.08596322,-0.03165132,0.10434726,0.1639383,0.11483776,0.09675301,-0.026377628,-0.45084834,0.17437924,0.042530153,0.05646709,0.11709789,-0.04101898,-0.09027022,0.041228686,0.049529064,-0.13284607,-0.28894618,0.09526693,-0.29285014,-0.20627978,0.1295639,-0.03233773,-0.36505747,0.045770705,-0.030250918,0.025728187,0.0438957,-0.18971026,-0.28684774,0.14959168,0.20593035,0.098314226,-0.008131376,-0.21470916,0.05177141,-0.15632975,0.12283647,0.10880786,-0.0931696,0.026152672,-0.1550893,-0.07887679,-0.09531433,-0.06311014,-0.16048849,0.14388575,-0.08324684,0.021135915,-0.08735718,0.2949735,-0.054232106,-0.17881198,0.23957944,-0.16160282,-0.26793036,-0.08994631,-0.11877577,-0.16334984,0.059288543,0.07279715,-0.11686872,-0.26553687,-0.3009008,-0.26416147,-0.09329872,0.0030955959,-0.54537725,0.0049112136,-0.08478974,-0.15218465,0.2587666,0.030794369,0.046966713,0.0020515136,-0.025625627,-0.12824978,-0.0003186828,-0.2995256,-0.096896075,-0.12733816,0.014376053,-0.32357714,-0.22533965,-0.049342427,0.006655955,0.1281636,-0.43077374,0.01234329,-0.07815995,-0.1295286,0.03936095,0.040175047,0.005788007,0.013818706,0.12477162,0.0039796815,0.028718593,-0.34444174,0.2477964,0.04461118,-0.08866556,-0.07650273,-0.03257324,-0.054207385,0.013451525,-0.0604181,-0.086161114,0.04223765,-0.088408574,0.12460125,0.0052819042,-0.015690377,0.04779065,0.17290218,-0.03340421,-0.18964976,0.02524616,0.1710468,-0.12232689,0.1618845,-0.011920683,0.19758485,-0.056374237,-0.20059803,0.052729,0.12399267,-0.012442462,-0.01017744,0.1879079,-0.3896125,0.06261756,-0.26338348,-0.12897499,-0.020230647,0.042058993,-0.012883231,0.13306755,-0.09491436,-0.011485728,-0.06548487,-0.12182014,-0.018762544,-0.1053489,-0.050406486,-0.017569255,-0.035621762,-0.09201924,-0.026469259,0.16107208,-0.053045373,-0.46635574,-0.048264414,-0.21277058,-0.3106035,-0.28477433,0.040565435,-0.066964254,-0.07009559,0.09248381,-0.056614056,0.11834847,-0.66028786,-0.083653405,0.021847738,-0.12774998,-0.11573325,0.08835258,-0.08550776,0.11813475,-0.6795251,-0.34088415,-0.103649765,-0.083327554,-0.13130058,0.031825442,-0.07346874,0.014769682,-0.21667533,0.08835441,0.024739068,-0.28560364,-0.29729703,0.38037863,0.08970703,-0.14282547,-0.12607764,-0.057579786,0.13393942,0.040118113,-0.10794337,-0.13563001,-0.063994296,0.087352306,-0.13658963,-0.30939513,0.0029668892,0.01661269,-0.047858547,0.08994169,0.055554315,-0.085316814,0.0696104,0.121216774,0.06683578,-0.14885528,-0.030877976,-0.24250633,-0.23442459,0.073921315,-0.07053547,-0.072262585,0.22926255,0.18605085,-0.064092726,-0.257138,-0.06931631,-0.062617116,-0.5034659,0.1886855,0.105229095,0.13746494,-0.0028446626,0.2492706,-0.18615106,0.118697,0.07786735,-0.066899,-0.19103055,-0.15247911,-0.10835042,-0.14054441,-0.09524499,-0.12901199,-0.12980148,-0.13263516,0.012665499,-0.099793375,-0.11968864,-0.16628334,-0.119821005,0.20581889,-0.050880738,0.14858373,-0.011315635,0.13254824,0.029806515,-0.05370578,-0.021082832,-0.1428806,-0.0056651384,0.12647824,-0.27531853,-0.04958887,0.022334041,0.18812831,0.032811437,0.10610675,0.214891,0.166718,0.019327622,0.052825805,0.0417461,-0.3996504,-0.19772062,0.04038704,0.13387291,-0.00571147,0.058854487,0.006975575,0.34693485,-0.00840428,0.107533984,-0.34752896,0.30233124,-0.11213366,-0.30459195,-0.1522027,2.3535074e-05,-0.26242033,-0.035075456,0.074550785,0.018669914,0.019656334,-0.0021810904,-0.001661422,0.052345738,-0.049502537,-0.09579684,0.19086753,-0.3112286,0.05658351,-0.17025964,-0.011793274,-0.15746112,0.019210484,0.02930776,0.017126303,-0.124382064,-0.038673118,0.09173143,0.041448552,-0.035113607,-0.1741448,-0.12902415,-0.068456516,0.12869653,-0.28997165,0.055681456,0.0010726805,0.13200231,0.13364202,-0.016280996,0.0032918134,-0.008459314,-0.14374019,-0.056157485,-0.043391563,0.031622387,-0.15456161,0.111200005,0.10341987,-0.02786517,0.15914442,0.08789024,0.03773429,0.06706176,-0.26609257,0.028137717,-0.033181593,0.0748178,0.02514323,-0.05466573,0.041671503,0.013982365,0.016413199,-0.07903007,0.053627204,-0.020109078,-0.09810148,-0.0639081,-0.049487,-0.093034334,-0.14680167,-0.116640784,0.019054042,-0.11168068,0.14310996,-0.12945817,-0.21614847,0.19565,0.0719139,0.23943412,-0.0024285112,-0.0076835626,0.19587,-0.15227348,0.026432,-0.16258161,-0.16192959,0.0040092785,-0.47497344,-0.13915096,-0.095626354,-0.082798325,-0.0638887,0.31358975,0.054801345,-0.07639806,-0.018185249,-0.0075639184,0.17289726,0.1070639,0.14753377,0.033239376,-0.021144122,0.053420097,-0.12495236,-0.035569247,0.08671928,-0.60555935,-0.15081684,0.044384472,0.13445115,0.0056670047,0.10024404,0.09236435,0.07647641,-0.14248218,0.04254131,0.058235962,0.24467361,-0.1501427,-0.2870434,-0.13200831,0.035820995,0.021946961,-0.055778444,0.22421445,0.036473837,-0.025334835,-0.09651668,0.2446281,-0.16560327,-0.0073979245,0.11367289,0.04756427,-0.23992053,-0.12156345,0.2120426,-0.2544108,0.07075784,0.040632974,-0.10325882,0.060504038,0.18316011,0.110634774,0.05695045,-0.26968396,0.12795259,0.3231949,-0.113171,0.030755606,-0.019407835,0.02502255,-0.16322011,-0.14274769,-0.019944541,0.06658206,-0.0032276297,0.044464763,-0.040994834,0.022360059,-0.01207296,0.06215203,-0.15741868,0.07228272,0.041094266,-0.21326664,-0.001079321,-0.13179202,-0.22560263,-0.29208013,0.056554053,-0.017096814,-0.04124282,0.20648839,0.17095116,0.08083212,0.131689,-0.024434874,0.081832044,0.10217319,0.016202856,-0.10609501,0.019776346,0.036156416,-0.16330609,-0.07857253,0.104166195,-0.07670073,-0.0034073773,0.10122879,0.027668443,-0.043461908,-0.014458064,-0.077829294,-0.2917694,0.036643926,0.12868018,-0.0111206,0.17579128,0.079733655,-0.043929763,0.03103894,0.11547926,-0.29782766,-0.13205929,0.03168709,0.219396,-0.1462239,-0.12510993,0.16364747,0.1875374,-0.18118094,0.046344083,0.07434866,-0.6336528,-0.09728597,-0.014789427,0.0165712,0.020107219,0.05018142,-0.07002824,0.110701315,0.20682384,0.009921472,-0.28577283,0.12456868,-0.25264344,0.013302145,0.200559,0.06728947,0.05835058,-0.06647568,-0.017316155,0.024709491,-0.034226507,0.12635814,-0.17998137,0.09463719,0.16118476,0.025465138,-0.06783711,0.09143245,0.05188235,0.1888931,-0.09483655,-0.105660126,-0.5182922,0.004234473,-0.065806195,-0.037675172,0.05036337,-0.10432095,-0.00091373484,0.14919023,0.009347264,-0.0060279844,-0.03881739,0.102191366,0.100214206,0.017147146,-0.12566298,-0.009663922,-0.1381678,-0.13059708,0.19618948,-0.037562862,0.069393896,-0.15918352,0.07073162,0.07629314,0.109794505,-0.016089778,-0.0001745057,-0.0032267408,-0.05684898,0.061425753,-0.12457499,-0.15920499,-0.052284807,-0.03553247,-0.201813,0.06440389,-0.12924565,-0.15162005,-0.008269675,0.07236366,-0.1466209,-0.10875511,-0.05742515,0.17397188,-0.07536981,-0.005342628,0.20771137,0.04873727,-0.35558122,0.03538076,0.07683694,-0.1329706,-0.16501196,0.03887947,-0.40250665,-0.26911378,0.2092899,-0.19297403,-0.107608065,0.12027761,-0.45976543,0.11631818,-0.054800265,-0.005393838,0.26481122,-0.079101354,-0.013922195,-0.22117919,0.052635934,0.086656645,-0.058009785,-0.22675844,0.1040669,-0.06921101,0.1769492,-0.4063475,-0.31364664,-0.19389504,-0.07577619,0.024436042,-0.19683325,-0.32696006,0.08426982,-0.013632485,0.07867286,0.0008607819,-0.039326705,0.07163296,0.08209955,0.072057225,0.09881546,-0.18195008,-0.06788899,0.069399774,-0.083266065,0.061573368,-0.12585023,0.08103544,0.029035974,0.09442807,-0.012047913,0.033343278,-0.14144611,0.14738207,0.043025248,-0.109815545,0.08491437,-0.0163991,0.006230455,0.07032348,-0.15248084,0.055849787,0.08189277,-0.0460474,-0.07095417,0.09260751,0.102610655,-0.07447077,0.10113371,0.11533866,0.03085216,0.040037643,0.29409316,-0.22245717,-0.011329773,-0.071738884,-0.05468669,-0.07616289,0.038590103,-0.16824123,0.011970323,-0.054519523,0.022010798,-0.21930876,-0.08230539,0.15266995,-0.042156875,0.036087845,-0.10395016,0.020625122,-0.12223276,0.12087537,-0.12464846,-0.097967826,-0.341246,-0.14764336,0.11727051,-0.030452685,-0.10643214,0.034487356,-0.033898324,-0.217388,-0.06521133,-0.13304524,0.0031373443,-0.3070301,-0.113042444,0.10309317,-0.13466524,-0.031410467,0.22917327,0.07680134,-0.04288296,-0.50918347,-0.0072077643,-0.05581557,-0.036069497,-0.022493972,-0.08873263,0.10293114,0.08267644,-0.14203088,0.10953554,0.084983654,-0.14624576,-0.18191183,0.09894934,0.14372928,-0.0032318654,0.031186426,0.0130260885,-0.14234625,-0.20886731,-0.1705832,-0.055694234,-0.11670679,0.11478848,-0.14458327,-0.20181237,-0.02095908,-0.07050758,-0.067791045,0.124134704,0.07034048,-0.14361127,-0.08454111,0.07210193,-0.007433842,0.0199074,0.1309984,-0.048612762,0.0061452757,0.12057652,-0.02179983,0.059174825,0.046213258,0.04833452,-0.21514712,-0.33321536,0.0056376914,0.13004282,-0.32267994,0.24756557,-0.03440882,-0.08978048,0.12598202,0.16387689,-0.029593535,0.17192025,0.33700722,-0.070081815,-0.19283554,-0.04602905,0.070677444,-0.09487366,-0.054647658,-0.17819637,0.06032816,-0.05696307,-0.012494261,-0.16081785,-0.12549742,-0.0066529904,-0.077835664,0.12177132,-0.2407383,0.15717211,0.07613933,0.12190179,-0.0019735007,-0.01532611,-0.10103274,0.22784954,-0.0031243744,-0.020748323,-0.3224992,-0.028513748,0.14644523,0.25778636,-0.06757838,-0.028538296,0.18616125,0.12964217,-0.05118335,-0.111325376,-0.1629395,-0.3359872,-0.1065169,-0.049843434,0.057435352,0.02699496,0.00037889846,0.018225824,0.17862609,0.13714744,-0.16578557,-0.23715518,0.2407745,-0.124053806,0.17275995,-0.03929888,0.15017362,-0.23390605,-0.022055456,0.022414647,-0.07577599,-0.04479057,-0.06114836,-0.17773594,0.17593187,0.019161541,0.12548508,0.2083382,-0.21900663,-0.027354067,-0.1396025,0.01691566,0.08002768,0.074831545,0.1468345,-0.05816826,-0.1283553,0.1382547,-0.20255318,-0.003731231,0.049090486,-0.17472096,-0.095391035,-0.030968634,0.0743919,-0.2286625,0.034369845,0.09291353,0.054336544,0.0024113064,-0.027375141,-0.028630499,0.015806692,-0.16068758,-0.08689366,0.0017991132,-0.08858519,0.03819197,-0.032443363,0.03713456,-0.10063505,0.20776092,-0.06143332,-0.13599543,-0.14944209,-0.2623463,-0.019368846,0.025156496,0.08271437,0.038049903,-0.08672314,-0.04301493,0.17132583,-0.017553514,0.0018815346,-0.09456407,0.16323985,0.06925199,-0.08539003,0.12876487,-0.1760925,-0.24380608,-0.20582312,-0.19067179,-0.23392509,0.1694353,-0.18301079,-0.11674674,0.30591843,0.18843603,-0.04361104,0.03401834,-0.056744114,0.12093176,-0.2541994,-0.011469189,-0.10666784,-0.21450736,0.07404154,-0.38020292,-0.29295594,-0.31037757,0.059459187,-0.06400755,0.008916231,-0.095061146,0.121333994,0.021020528,0.012616734,0.10870159,0.14139378,-0.034315884,-0.0010851222,-0.10666957,-0.3210565,-0.048725232,-0.23398742,-0.05454758,-0.41182044,-0.039654884,-0.012119605,0.04605334,0.061682265,0.12595676,0.09917885,0.010735942,-0.20955329,-0.1254161,-0.0839964,0.116685994,-0.018592648,-0.16911499,-0.07652671,0.047711484,0.009983928,-0.047994662,0.20647174,0.1554301,0.12773421,-0.07258776,-0.023391074,-0.13052642,0.19078162,0.114239044,-0.16791445,-0.24136569,-0.4420488,0.071933575,-0.45676327,-0.27190003,-0.097888686,0.16620721,0.081411995,0.0017848545,0.0100980885,-0.056598317,-0.28581455,-0.04331944,0.028280096,-0.17481679,-0.17001311,-0.014982872,0.25025848,-0.31319028,-0.22822322,-0.018836485,-0.11495853,-0.0679593,0.11304709,0.02321715,-0.07131003,0.055067457,0.11677027,0.06237458,0.05577683,-0.009834769,-0.2654184,-0.09003754,-0.15634003,0.07629117,-0.20704904,0.10567315,-0.14169092,-0.03843575,0.15915151,0.032560717,-0.17889968,0.03640093,-0.027546134,0.066433005,-0.1422447,-0.007196699,0.014587021,0.012187385,0.17936882,-0.17573746,-0.033136666,0.16980782,-0.17685524,-0.056175686,0.124801435,-0.101151265,0.047393702,-0.08403613,-0.02060349,-0.096454054,0.116697036,0.1070199,0.04380677,0.09132972,-0.08950205,-0.32042167,0.014391521,-0.025464278,-0.39715755,-0.12181489,0.15500951,0.2445098,0.11761183,-0.15929997,0.18932904,0.17822,-0.029678376,-0.18084694,-0.06364559,-0.6553559,-0.093151644,-0.0123735815,-0.034681153,0.10955595,-0.13036238,-0.107067056,0.16962543,0.09845773,-0.05944192,-0.40806654,0.102802634,-0.15728575,0.105235755,0.06063541,0.032831457,0.060153678,-0.02514461,0.0123196365,-0.01936508,0.018388236,-0.07346909,-0.11837792,0.2090314,0.2018983,-0.017747477,-0.070428535,0.164989,0.043084886,0.1670253,-0.052702256,-0.0954653,-0.6794942,0.0013480624,-0.14672227,0.10471855,-0.07773142,-0.055783987,-0.040367756,0.17976888,0.024287783,-0.039203133,-0.06615713,0.12004254,0.005801144,0.0044397963,-0.2441067,-0.06491639,-0.22474918,-0.045307107,-0.004011272,-0.055125907,-0.12892881,-0.25332966,-0.03260665,0.1852738,0.19027014,0.23593302,-0.06650682,-0.0008360693,0.11280634,-0.09680143,0.05115692,-0.1009837,-0.08070039,-0.029242123,-0.21116371,0.06754654,-0.038580023,-0.040493958,-0.13056484,0.31872103,-0.11401554,-0.01735056,-0.2246906,0.16998479,0.09124553,0.12391537,0.07517648,-0.10774355,-0.32616994,0.0068309386,0.122027315,-0.3668516,0.16724019,0.16721453,0.043057974,-0.43013886,0.13528585,-0.18696755,-0.032826837,0.113878824,-0.44050264,0.2559595,0.15743864,0.07978624,0.24969842,0.23918997,-0.027609613,-0.44621482,-0.004897863,-0.14002343,-0.0042060534,-0.31190646,-0.010671397,-0.010722142,0.06268453,-0.39734524,-0.042968977,-0.29609233,-0.04250527,0.017365538,-0.047570832,-0.32444778,-0.05897583,-0.21054402,-0.11458012,0.015125626,0.0027319265,0.18997945,0.087622546,0.13983355,-0.07191699,-0.16391745,0.10010015,-0.08739351,-0.17948462,0.0060807858,0.046978567,0.12718514,-0.07039068,-0.15857378,0.09272896,-0.18261093,-0.07911737,0.024448995,-0.09238835,0.0036974049,0.047161546,0.1515922,0.14757723,0.09126746,-0.045755327,0.03332234,0.0118518295,-0.018140368,0.022297582,-0.1109098,-0.050935976,0.008683358,0.28799582,0.035553094,0.0109555535,0.012141756,0.104124345,-0.330874,-0.00753485,-0.17383772,-0.10672239,0.0005199832,0.11996671,-0.06729669,-0.07524354,-0.07520445,-0.017537933,-0.025446001,-0.0018234787,-0.042163093,-0.22674057,-0.054856226,0.0039728554,-0.049437318,-0.09128086,0.031816874,-0.04788459,0.05288309,-0.09115898,-0.27671644,-0.10398865,-0.079311565,-0.20069493,0.021625701,0.1815896,-0.20136559,0.074345246,0.07932638,0.13690037,-0.33845288,-0.020659203,-0.12131574,0.03518736,-0.098529406,0.20043217,0.1220517,0.044283483,-0.49163505,-0.23708315,-0.28445983,0.084366575,-0.08822592,-0.25327012,0.031126354,0.07861211,-0.0409995,0.19192734,0.03586039,-0.044896137,0.013211111,-0.07221722,0.2551206,0.01843195,0.24747728,0.03422347,-0.29034355,-0.038402513,-0.21046638,-0.11144501,-0.3316495,0.12585229,-0.27337906,-0.20561035,-0.042219877,-0.14180979,-0.037894405,0.1943163,-0.03405452,0.1284754,-0.021811584,-0.17310806,-0.1317802,-0.04546769,-0.06473689,-0.032638304,-0.18898033,0.15714599,0.038511038,0.05412592,-0.2431648,-0.016143551,-0.18683146,-0.09413707,0.02582217,0.055881467,-0.18851331,0.13731377,-0.004668946,-0.1580257,-0.06947377,-0.16259916,-0.036806718,0.21505135,0.32818618,-0.003909352,-0.04140755,-0.029987281,-0.0822827,-0.10982583,0.16823025,-0.07571889,-0.10818868,-0.058303177,0.098424494,0.03293511,-0.19204126,-0.1071044,-0.2001752,0.15289217,-0.26970714,-0.003817746,-0.106434785,-0.06884723,-0.005322278,-0.024086675,-0.117114425,0.02082442,-0.09070914,0.036701173,-0.35055357,-0.17246675,0.3705692,0.26589534,0.09193773,-0.091997825,0.18715608,0.18534315,-0.067884244,-0.05086334,0.045665964,-0.41634753,-0.24418798,-0.119096264,-0.045415957,-0.025447858,-0.08835117,-0.074742556,0.2588734,-0.03606569,-0.08836895,-0.21580556,0.16036254,0.0236036,-0.044223562,0.06122429,0.06636137,-0.22182603,0.075155854,0.29301408,-0.47702768,0.15840177,-0.045614336,0.026312577,0.07272643,0.0034075347,-0.15153342,0.08368374,-0.46429804,0.0014407435,0.16878419,-0.12658367,-0.0029525564,0.08583624,0.2135224,-0.23031975,-0.23576069,0.014407846,-0.09885266,-0.03473312,0.02225528,-0.02777838,0.031070892,-0.021007799,0.059322596,0.009785784,0.011828998,-0.20164445,-0.046049308,0.0881326,0.13697957,-0.1141201,0.05792517,-0.32004574,-0.14485782,-0.03775398,0.05365826,-0.13434651,-0.05167336,0.07157606,-0.0019442409,0.14275932,0.09505435,-0.081502736,0.004315372,-0.123556346,0.014187414,0.16329376,-0.03875767,0.026226273,0.010790972,0.0011101426,-0.0074069872,-0.045666043,-0.06824879,-0.0007741606,0.04995916,-0.014162153,-0.07238762};
float16_t conv2d_layer3_biases[32] = {-0.17857616,0.20921743,0.32973853,0.11554564,-0.08282627,0.27977368,0.13407621,0.18080997,0.42481777,0.0155818835,-0.21732959,-0.076634355,0.33673415,0.054302413,-0.117478386,-0.13411953,-0.09850124,-0.04199754,-0.14074497,-0.086466365,0.25272182,0.32545614,0.24646892,-0.0165057,-0.109845825,-0.12128509,-0.16244787,-0.09041883,0.16243416,-0.09976021,0.22026037,0.003760566};
float16_t fc_layer_weights[512][1] = {-0.12733407,-0.09251356,-0.30238146,-0.066364355,-0.16337407,-0.17853096,-0.11689675,-0.16378474,-0.27220285,-0.25754547,-0.29241848,-0.1316344,-0.28006744,-0.4392077,0.26787728,-0.14982815,-0.14196171,0.064199746,0.23914404,-0.054526597,-0.14018488,-0.38568446,-0.38641307,-0.09943458,0.026741143,0.15724444,-0.15252747,0.08381066,-0.1509397,0.17443705,-0.24727784,-0.024375329,-0.1737555,-0.026284063,-0.11422103,0.0017658286,-0.020727437,-0.070364445,-0.042545266,-0.084023416,-0.088833235,-0.10419624,-0.1393336,-0.060328096,-0.10486296,-0.24391012,0.14148931,-0.10143975,-0.103847355,0.008499201,0.26832393,-0.055755187,0.02233904,-0.11362474,-0.107475,0.021044975,-0.08189426,0.088951856,0.04636543,-0.01530368,-0.057408884,0.068484515,-0.008788719,0.04154084,-0.07895273,-0.13202225,0.029969417,0.022363275,0.01120129,-0.21395253,-0.054953177,-0.06826563,-0.04351673,-0.038887072,-0.12628911,0.00215153,-0.13550907,-0.2534717,0.14427716,0.06404791,-0.06860241,-0.031782985,0.22982758,-0.026363868,0.05272234,-0.23524521,0.038469456,-0.06721806,0.010898855,-0.01768493,-0.08882831,-0.022149537,0.0011600748,0.03058254,0.023634214,0.043798305,-0.11024844,-0.43340614,-0.103216305,-0.018938622,-0.07270713,-0.36869442,-0.33389384,-0.19388287,-0.21575955,-0.19454148,-0.32385516,-0.00750353,-0.31443676,-0.4798376,0.2205153,-0.26870084,-0.038416583,0.023187004,0.3182934,-0.17875318,-0.3290057,-0.30433533,-0.12335616,0.06418025,0.008486513,0.041831426,-0.16990587,-0.102510735,-0.16004564,0.11859231,-0.08425726,0.192655,-0.16213913,-0.052275844,-0.08693181,0.057712004,-0.20334719,-0.05385134,-0.10706494,-0.061339244,-0.11257331,-0.04110099,-0.15230122,-0.06532257,-0.123674504,-0.12659122,0.0598744,-0.019227533,-0.025897747,0.05220834,0.20625508,-0.037900694,-0.05611849,-0.2637244,-0.20127247,-0.07486892,-0.0036575836,0.051297598,-0.123503104,-0.00028314313,-0.023886753,0.12335689,-0.055648554,-0.08785375,-0.029831883,0.006361861,0.00348047,0.14601094,-0.11577546,0.0025360545,-0.030547738,-0.047748365,-0.066937014,0.0028211833,-0.22256547,-0.059964783,-0.027784804,-0.06547931,-0.06829399,-0.09289735,-0.06464372,-0.053428743,0.0006941078,-0.06611008,0.053374078,-0.020312019,0.04250852,0.013511718,-0.056007884,0.027847784,-0.026051044,0.047576137,0.015310671,-0.035598915,0.038966272,-0.047716364,-0.114358865,0.061408,0.078101195,0.025186768,-0.07185602,-0.0066621713,-0.048665937,-0.06662956,-0.049614888,0.13162278,-0.053756695,-0.12789574,0.0015568722,-0.023485595,0.0766493,-0.11908871,-0.041566934,-0.0694251,0.104733326,-0.07286592,-0.015759028,-0.1357636,0.045078102,-0.081089646,0.028032504,-0.07003955,-0.08539816,0.053900417,0.047649547,0.04454327,0.05742776,0.031394392,-0.09268053,-0.03684708,-0.17134844,-0.007088646,0.018993925,-0.12079609,-0.11540621,-0.082730465,-0.11790955,0.00038605658,-0.039094947,0.019740634,-0.124128655,-0.28351897,0.16474785,-0.10638102,0.017895976,0.015245151,0.08854727,-0.11584227,-0.10042478,-0.16511735,-0.12597248,0.101042725,-0.0038166584,-0.0007242613,-0.16475205,0.030731343,-0.06841427,-0.0061779157,-0.06870999,0.117255785,-0.17608774,0.04601732,-0.2416244,0.04660525,-0.017981596,-0.08184279,-0.2198785,-0.1011261,-0.13280764,0.06242543,-0.20104401,-0.107007116,-0.07423005,-0.24468553,0.14958562,-0.18155447,-0.038732,0.017505778,0.21951696,0.07012958,-0.032036442,-0.23013127,-0.06372064,0.03292837,0.04514062,-0.03691532,-0.095415086,-0.0818938,-0.04142473,0.074396916,-0.04632928,-0.12851341,-0.06462726,-0.04099851,-0.0049880897,-0.023010282,-0.027247697,-0.07881778,-0.07940633,-0.05814082,-0.15896195,0.045250073,-0.17691486,0.07913481,-0.008808489,0.038832452,0.05916144,-0.033179674,-0.07462551,-0.04318132,0.061505817,0.0358346,-0.16594017,-0.108305894,-0.0049880007,-0.0666464,-0.03931269,0.0505565,0.035342857,0.039351605,0.08650309,0.01158458,0.0594916,0.0035408607,0.10878754,-0.029058645,0.056981128,0.09774061,0.1108824,0.034902073,-0.09721976,-0.009027457,0.016669957,0.031152248,-0.14177181,0.07529971,-0.04318995,-0.024296016,0.055361092,-0.1884623,0.070347846,-0.017359814,0.16562645,0.041285686,-0.012788081,-0.09434731,-0.0387976,-0.017878622,0.015144064,-0.03420768,-0.10352151,-0.12073344,0.017363792,0.053550135,0.030048633,-0.043446958,0.019822959,-0.10586685,-0.07716024,0.008633277,-0.080184296,-0.18978575,-0.11700404,-0.1400841,-0.1640439,0.09194952,-0.262403,0.11000383,-0.10442823,-0.24357486,0.080393374,-0.046901125,-0.13481852,0.0013914201,0.16739291,-0.022568109,-0.068691954,-0.17004177,-0.06971066,-0.14043501,-0.042547356,0.09188564,0.15229806,-0.054847106,-0.05073819,0.10001744,-0.061039273,0.064475074,-0.11435959,0.005333911,-0.48794413,-0.043829996,-0.059875663,-0.20934181,-0.15831459,-0.20967895,-0.10965868,0.08998363,-0.12138572,0.05055764,-0.21963084,-0.39976263,0.29657158,-0.10066563,-0.015599222,0.07596189,0.252305,-0.050133053,0.012299052,-0.3087035,-0.14985958,0.0026475724,-0.013473804,0.13673289,0.0047852905,-0.04234551,-0.16018729,0.24516371,-0.29427728,-0.07604998,-0.22534597,0.03825264,-0.23583622,0.031099942,0.0068963394,0.008446366,-0.06459603,-0.0013932057,-0.1033645,0.085397005,-0.097129926,0.1854915,-0.09453069,-0.23715794,0.0653226,-0.17127165,0.01679139,0.035048004,0.24191688,-0.18166764,-0.009144479,-0.12112269,0.052501634,0.029638804,0.035944704,0.12863575,-0.03726906,-0.010488224,-0.036939472,0.03019338,-0.06160968,-0.08013881,-0.036630124,-0.039479934,-0.1347293,-0.1336854,-0.19615294,-0.14720409,-0.14676774,-0.028180301,-0.1131827,0.09456565,-0.21834639,-0.013762796,-0.06079867,-0.33587933,0.07268619,-0.008394957,0.01608674,-0.035464115,0.22123511,-0.15553215,-0.05217168,-0.18335399,-0.01979298,0.07719998,-0.04896304,0.055740178,-0.091769695,0.00725485,0.005283098,0.05570377,-0.10026085,-0.069410205,-0.23955654,-0.039543215,-0.31760684,-0.27244955,-0.20517391,-0.42396808,-0.2615161,-0.25378713,-0.14979656,0.21287626,-0.10831185,0.06809716,-0.19567022,-0.41683877,0.10024817,-0.08599858,-0.1558943,0.0004935534,0.34873652,-0.21146815,-0.33438405,-0.36849776,-0.020180177,-0.06327171,-0.024921829,0.17736036,-0.089153014,0.06727682,-0.13745287,0.18173513,-0.120954335,0.120409995};
float16_t fc_layer_biases[1] = {-0.047251794};